{"learner":{"attributes":{"best_iteration":"621","best_score":"0.3298359108313403","scikit_learn":"{\"_estimator_type\": \"classifier\"}"},"feature_names":[],"feature_types":[],"gradient_booster":{"model":{"cats":{"enc":[],"feature_segments":[],"sorted_idx":[]},"gbtree_model_param":{"num_parallel_tree":"1","num_trees":"622"},"iteration_indptr":[0,1,2,3,4,5,6,7,8,9,10,11,12,13,14,15,16,17,18,19,20,21,22,23,24,25,26,27,28,29,30,31,32,33,34,35,36,37,38,39,40,41,42,43,44,45,46,47,48,49,50,51,52,53,54,55,56,57,58,59,60,61,62,63,64,65,66,67,68,69,70,71,72,73,74,75,76,77,78,79,80,81,82,83,84,85,86,87,88,89,90,91,92,93,94,95,96,97,98,99,100,101,102,103,104,105,106,107,108,109,110,111,112,113,114,115,116,117,118,119,120,121,122,123,124,125,126,127,128,129,130,131,132,133,134,135,136,137,138,139,140,141,142,143,144,145,146,147,148,149,150,151,152,153,154,155,156,157,158,159,160,161,162,163,164,165,166,167,168,169,170,171,172,173,174,175,176,177,178,179,180,181,182,183,184,185,186,187,188,189,190,191,192,193,194,195,196,197,198,199,200,201,202,203,204,205,206,207,208,209,210,211,212,213,214,215,216,217,218,219,220,221,222,223,224,225,226,227,228,229,230,231,232,233,234,235,236,237,238,239,240,241,242,243,244,245,246,247,248,249,250,251,252,253,254,255,256,257,258,259,260,261,262,263,264,265,266,267,268,269,270,271,272,273,274,275,276,277,278,279,280,281,282,283,284,285,286,287,288,289,290,291,292,293,294,295,296,297,298,299,300,301,302,303,304,305,306,307,308,309,310,311,312,313,314,315,316,317,318,319,320,321,322,323,324,325,326,327,328,329,330,331,332,333,334,335,336,337,338,339,340,341,342,343,344,345,346,347,348,349,350,351,352,353,354,355,356,357,358,359,360,361,362,363,364,365,366,367,368,369,370,371,372,373,374,375,376,377,378,379,380,381,382,383,384,385,386,387,388,389,390,391,392,393,394,395,396,397,398,399,400,401,402,403,404,405,406,407,408,409,410,411,412,413,414,415,416,417,418,419,420,421,422,423,424,425,426,427,428,429,430,431,432,433,434,435,436,437,438,439,440,441,442,443,444,445,446,447,448,449,450,451,452,453,454,455,456,457,458,459,460,461,462,463,464,465,466,467,468,469,470,471,472,473,474,475,476,477,478,479,480,481,482,483,484,485,486,487,488,489,490,491,492,493,494,495,496,497,498,499,500,501,502,503,504,505,506,507,508,509,510,511,512,513,514,515,516,517,518,519,520,521,522,523,524,525,526,527,528,529,530,531,532,533,534,535,536,537,538,539,540,541,542,543,544,545,546,547,548,549,550,551,552,553,554,555,556,557,558,559,560,561,562,563,564,565,566,567,568,569,570,571,572,573,574,575,576,577,578,579,580,581,582,583,584,585,586,587,588,589,590,591,592,593,594,595,596,597,598,599,600,601,602,603,604,605,606,607,608,609,610,611,612,613,614,615,616,617,618,619,620,621,622],"tree_info":[0,0,0,0,0,0,0,0,0,0,0,0,0,0,0,0,0,0,0,0,0,0,0,0,0,0,0,0,0,0,0,0,0,0,0,0,0,0,0,0,0,0,0,0,0,0,0,0,0,0,0,0,0,0,0,0,0,0,0,0,0,0,0,0,0,0,0,0,0,0,0,0,0,0,0,0,0,0,0,0,0,0,0,0,0,0,0,0,0,0,0,0,0,0,0,0,0,0,0,0,0,0,0,0,0,0,0,0,0,0,0,0,0,0,0,0,0,0,0,0,0,0,0,0,0,0,0,0,0,0,0,0,0,0,0,0,0,0,0,0,0,0,0,0,0,0,0,0,0,0,0,0,0,0,0,0,0,0,0,0,0,0,0,0,0,0,0,0,0,0,0,0,0,0,0,0,0,0,0,0,0,0,0,0,0,0,0,0,0,0,0,0,0,0,0,0,0,0,0,0,0,0,0,0,0,0,0,0,0,0,0,0,0,0,0,0,0,0,0,0,0,0,0,0,0,0,0,0,0,0,0,0,0,0,0,0,0,0,0,0,0,0,0,0,0,0,0,0,0,0,0,0,0,0,0,0,0,0,0,0,0,0,0,0,0,0,0,0,0,0,0,0,0,0,0,0,0,0,0,0,0,0,0,0,0,0,0,0,0,0,0,0,0,0,0,0,0,0,0,0,0,0,0,0,0,0,0,0,0,0,0,0,0,0,0,0,0,0,0,0,0,0,0,0,0,0,0,0,0,0,0,0,0,0,0,0,0,0,0,0,0,0,0,0,0,0,0,0,0,0,0,0,0,0,0,0,0,0,0,0,0,0,0,0,0,0,0,0,0,0,0,0,0,0,0,0,0,0,0,0,0,0,0,0,0,0,0,0,0,0,0,0,0,0,0,0,0,0,0,0,0,0,0,0,0,0,0,0,0,0,0,0,0,0,0,0,0,0,0,0,0,0,0,0,0,0,0,0,0,0,0,0,0,0,0,0,0,0,0,0,0,0,0,0,0,0,0,0,0,0,0,0,0,0,0,0,0,0,0,0,0,0,0,0,0,0,0,0,0,0,0,0,0,0,0,0,0,0,0,0,0,0,0,0,0,0,0,0,0,0,0,0,0,0,0,0,0,0,0,0,0,0,0,0,0,0,0,0,0,0,0,0,0,0,0,0,0,0,0,0,0,0,0,0,0,0,0,0,0,0,0,0,0,0,0,0,0,0,0,0,0,0,0,0,0,0,0,0,0,0,0,0,0,0,0,0,0,0,0,0,0,0,0,0,0,0,0,0,0,0,0,0,0,0,0,0,0,0,0,0,0,0,0,0,0,0,0,0,0,0,0,0,0,0,0,0,0,0,0,0,0,0,0,0,0,0,0,0,0,0,0,0,0,0,0,0,0,0,0,0,0,0],"trees":[{"base_weights":[3.180642E-3,-7.843997E-1,1.6345599E0,-1.0228823E0,1.9144501E-1,4.2444196E-1,2.2908447E0,-1.1069617E0,-1.4507733E-1,-4.4876012E-1,6.464884E-1,-1.8978055E-1,1.00313E0,1.5106653E0,2.663579E0,-1.2643034E0,-8.6104214E-1,-2.7264807E-1,1.0817715E0,-2.2735516E-2,-9.283341E-1,4.832259E-1,1.8846436E0,-7.123055E-1,9.063362E-2,5.2806437E-1,1.2631807E0,8.3306384E-1,1.8204193E0,2.3814707E0,8.7961085E-2,-4.0765125E-2,-3.4182467E-2,-2.112559E-2,-3.609826E-2,-1.4851255E-2,2.1608204E-3,1.46272145E-2,5.8296E-2,-1.3245881E-2,8.676958E-3,-3.2203317E-2,9.3891E-3,9.096117E-3,3.9155982E-2,2.1753497E-2,6.211245E-2,-2.2865811E-2,6.229896E-3,-5.870669E-3,1.11733945E-2,-3.1429972E-3,2.0352127E-2,2.2700679E-2,4.3573726E-2,4.7524734E-3,3.707021E-2,3.6089346E-2,6.096535E-2,5.6187645E-2,7.566945E-2],"categories":[],"categories_nodes":[],"categories_segments":[],"categories_sizes":[],"default_left":[0,0,0,0,0,0,0,0,0,0,0,0,0,0,0,0,0,0,0,0,0,0,0,0,0,0,0,0,0,0,0,0,0,0,0,0,0,0,0,0,0,0,0,0,0,0,0,0,0,0,0,0,0,0,0,0,0,0,0,0,0],"id":0,"left_children":[1,3,5,7,9,11,13,15,17,19,21,23,25,27,29,31,33,35,37,39,41,43,45,47,49,51,53,55,57,59,-1,-1,-1,-1,-1,-1,-1,-1,-1,-1,-1,-1,-1,-1,-1,-1,-1,-1,-1,-1,-1,-1,-1,-1,-1,-1,-1,-1,-1,-1,-1],"loss_changes":[1.0784159E4,1.317772E3,2.1682412E3,3.353745E2,3.249257E2,3.428591E2,5.0685645E2,1.5834131E2,6.3154675E1,9.4646736E1,1.2978503E2,6.887909E1,5.990396E1,1.1801257E2,7.634863E1,2.6614014E1,8.550073E1,2.79918E1,1.7455597E1,3.2619728E1,3.998265E1,8.472298E1,1.3053925E1,7.874733E0,2.4919653E1,1.721164E1,2.830188E1,4.975116E1,4.6526733E1,3.287256E1,0E0,0E0,0E0,0E0,0E0,0E0,0E0,0E0,0E0,0E0,0E0,0E0,0E0,0E0,0E0,0E0,0E0,0E0,0E0,0E0,0E0,0E0,0E0,0E0,0E0,0E0,0E0,0E0,0E0,0E0,0E0],"parents":[2147483647,0,0,1,1,2,2,3,3,4,4,5,5,6,6,7,7,8,8,9,9,10,10,11,11,12,12,13,13,14,14,15,15,16,16,17,17,18,18,19,19,20,20,21,21,22,22,23,23,24,24,25,25,26,26,27,27,28,28,29,29],"right_children":[2,4,6,8,10,12,14,16,18,20,22,24,26,28,30,32,34,36,38,40,42,44,46,48,50,52,54,56,58,60,-1,-1,-1,-1,-1,-1,-1,-1,-1,-1,-1,-1,-1,-1,-1,-1,-1,-1,-1,-1,-1,-1,-1,-1,-1,-1,-1,-1,-1,-1,-1],"split_conditions":[-9.287915E-2,4.5257866E-1,1.4284228E0,-8.252427E-2,-9.571232E-2,-5.3640272E-2,7.639251E-1,-4.9724248E-1,3.9664128E-1,1.2247449E0,1.4051594E0,-6.344244E-1,-2.7076787E-1,-5.3640272E-2,1.9277577E0,-9.177209E-1,1.2247449E0,-9.327663E-2,-2.503976E-1,2.782364E-1,1E0,-3.4168117E-2,-8.612473E-1,6.809739E-1,-1.6269898E-16,-1.1996745E0,-8.3025075E-2,-2.9625267E-1,-8.0561556E-2,-7.838564E-2,8.7961085E-2,-4.0765125E-2,-3.4182467E-2,-2.112559E-2,-3.609826E-2,-1.4851255E-2,2.1608204E-3,1.46272145E-2,5.8296E-2,-1.3245881E-2,8.676958E-3,-3.2203317E-2,9.3891E-3,9.096117E-3,3.9155982E-2,2.1753497E-2,6.211245E-2,-2.2865811E-2,6.229896E-3,-5.870669E-3,1.11733945E-2,-3.1429972E-3,2.0352127E-2,2.2700679E-2,4.3573726E-2,4.7524734E-3,3.707021E-2,3.6089346E-2,6.096535E-2,5.6187645E-2,7.566945E-2],"split_indices":[13,11,51,14,14,12,12,11,14,58,11,12,43,12,12,12,58,64,12,12,74,14,32,30,58,31,13,9,13,18,0,0,0,0,0,0,0,0,0,0,0,0,0,0,0,0,0,0,0,0,0,0,0,0,0,0,0,0,0,0,0],"split_type":[0,0,0,0,0,0,0,0,0,0,0,0,0,0,0,0,0,0,0,0,0,0,0,0,0,0,0,0,0,0,0,0,0,0,0,0,0,0,0,0,0,0,0,0,0,0,0,0,0,0,0,0,0,0,0,0,0,0,0,0,0],"sum_hessian":[8.389344E3,5.658567E3,2.7307766E3,4.5472407E3,1.1113265E3,9.614103E2,1.7693663E3,4.1492324E3,3.9800793E2,4.616892E2,6.496374E2,4.6699597E2,4.9441428E2,5.753426E2,1.1940238E3,2.5251392E3,1.6240935E3,3.619661E2,3.604183E1,2.4565933E2,2.1602986E2,5.764481E2,7.318923E1,1.6207767E2,3.049183E2,1.7711353E2,3.1730075E2,1.8286253E2,3.9248004E2,5.919262E2,6.0209753E2,1.4257528E3,1.0993864E3,1.1179601E3,5.0613342E2,2.195677E2,1.4239839E2,2.3217129E1,1.2824699E1,1.0458764E2,1.410717E2,1.9369719E2,2.2332666E1,4.7517725E2,1.01270905E2,1.1498007E1,6.1691227E1,1.5411751E2,7.9601583E0,1.5146413E2,1.5345416E2,3.405179E1,1.4306174E2,8.910955E1,2.2819121E2,6.9430275E1,1.1343226E2,1.0370318E2,2.8877686E2,1.3465935E2,4.5726688E2],"tree_param":{"num_deleted":"0","num_feature":"84","num_nodes":"61","size_leaf_vector":"1"}},{"base_weights":[-2.6254728E-3,-7.8506947E-1,1.5734154E0,-1.0586352E0,-1.6880881E-2,6.0148925E-1,2.2620027E0,-1.131706E0,-2.0923445E-1,-4.5050618E-1,4.9203303E-1,2.23913E-2,1.0932977E0,1.679314E0,2.6041014E0,-1.2979509E0,-9.5402473E-1,-3.9688015E-1,5.365875E-1,-1.2816933E-1,-8.9564174E-1,1.4731528E-1,1.0300881E0,-4.0087998E-1,3.0395177E-1,5.3465116E-1,1.345007E0,9.9095917E-1,1.9028492E0,2.350308E0,8.317018E-2,-3.989394E-2,-3.34726E-2,-2.3430465E-2,-3.4633283E-2,-2.6376938E-2,-6.9099218E-3,9.471365E-3,4.688875E-2,-1.8176839E-2,2.7924704E-3,-3.0330097E-2,8.4647555E-3,-1.4419482E-3,2.763217E-2,2.3014525E-2,4.878281E-2,-1.4274584E-2,2.9146371E-2,9.7336725E-4,1.747432E-2,-7.647292E-3,2.1397788E-2,3.2022934E-2,5.3125557E-2,4.994225E-2,2.1447578E-2,4.0425867E-2,6.286842E-2,1.7454924E-2,7.131702E-2],"categories":[],"categories_nodes":[],"categories_segments":[],"categories_sizes":[],"default_left":[0,0,0,0,0,0,0,0,0,0,0,0,0,0,0,0,0,0,0,0,0,0,0,0,0,0,0,0,0,0,0,0,0,0,0,0,0,0,0,0,0,0,0,0,0,0,0,0,0,0,0,0,0,0,0,0,0,0,0,0,0],"id":1,"left_children":[1,3,5,7,9,11,13,15,17,19,21,23,25,27,29,31,33,35,37,39,41,43,45,47,49,51,53,55,57,59,-1,-1,-1,-1,-1,-1,-1,-1,-1,-1,-1,-1,-1,-1,-1,-1,-1,-1,-1,-1,-1,-1,-1,-1,-1,-1,-1,-1,-1,-1,-1],"loss_changes":[1.0383754E4,1.1824089E3,1.8667192E3,2.5698584E2,3.2698196E2,3.306061E2,3.1682422E2,1.1024951E2,4.67669E1,1.1451384E2,1.2607037E2,6.404065E1,8.675061E1,8.998633E1,3.0523438E1,8.328613E0,6.239258E1,2.0893013E1,1.4191835E1,4.9439156E1,4.620883E1,6.330407E1,3.9038727E1,2.2976402E1,2.4334837E1,2.836454E1,4.7074646E1,2.6110672E1,4.325415E1,1.7194336E1,0E0,0E0,0E0,0E0,0E0,0E0,0E0,0E0,0E0,0E0,0E0,0E0,0E0,0E0,0E0,0E0,0E0,0E0,0E0,0E0,0E0,0E0,0E0,0E0,0E0,0E0,0E0,0E0,0E0,0E0,0E0],"parents":[2147483647,0,0,1,1,2,2,3,3,4,4,5,5,6,6,7,7,8,8,9,9,10,10,11,11,12,12,13,13,14,14,15,15,16,16,17,17,18,18,19,19,20,20,21,21,22,22,23,23,24,24,25,25,26,26,27,27,28,28,29,29],"right_children":[2,4,6,8,10,12,14,16,18,20,22,24,26,28,30,32,34,36,38,40,42,44,46,48,50,52,54,56,58,60,-1,-1,-1,-1,-1,-1,-1,-1,-1,-1,-1,-1,-1,-1,-1,-1,-1,-1,-1,-1,-1,-1,-1,-1,-1,-1,-1,-1,-1,-1,-1],"split_conditions":[1.4343779E0,1.9196811E-1,-8.322163E-2,-8.322163E-2,-9.351431E-2,8.038684E-2,1.008365E0,-8.181775E-1,3.526269E-2,1.2247449E0,9.774876E-1,-4.9682325E-1,-8.256482E-2,-8.494299E-3,1.9277577E0,-2.5370842E-1,7.0710677E-1,-7.030037E-1,1.882271E0,-7.2787E-2,1E0,-3.0472118E-2,1.3728144E0,1E0,-7.324862E-2,-1.1996745E0,9.724463E-1,-5.4844576E-1,-7.838564E-2,-1.2551299E0,8.317018E-2,-3.989394E-2,-3.34726E-2,-2.3430465E-2,-3.4633283E-2,-2.6376938E-2,-6.9099218E-3,9.471365E-3,4.688875E-2,-1.8176839E-2,2.7924704E-3,-3.0330097E-2,8.4647555E-3,-1.4419482E-3,2.763217E-2,2.3014525E-2,4.878281E-2,-1.4274584E-2,2.9146371E-2,9.7336725E-4,1.747432E-2,-7.647292E-3,2.1397788E-2,3.2022934E-2,5.3125557E-2,4.994225E-2,2.1447578E-2,4.0425867E-2,6.286842E-2,1.7454924E-2,7.131702E-2],"split_indices":[50,11,19,19,14,12,12,12,65,58,11,12,65,12,12,42,58,32,19,12,74,19,11,80,18,31,12,26,18,32,0,0,0,0,0,0,0,0,0,0,0,0,0,0,0,0,0,0,0,0,0,0,0,0,0,0,0,0,0,0,0],"split_type":[0,0,0,0,0,0,0,0,0,0,0,0,0,0,0,0,0,0,0,0,0,0,0,0,0,0,0,0,0,0,0,0,0,0,0,0,0,0,0,0,0,0,0,0,0,0,0,0,0,0,0,0,0,0,0,0,0,0,0,0,0],"sum_hessian":[8.416446E3,5.6249233E3,2.7915237E3,4.147207E3,1.4777162E3,1.1591823E3,1.6323413E3,3.8180325E3,3.2917444E2,7.9805396E2,6.7966223E2,5.333557E2,6.2582654E2,6.082639E2,1.0240774E3,1.965835E3,1.8521975E3,2.6380496E2,6.536948E1,4.644321E2,3.336219E2,4.1586743E2,2.6379483E2,2.1265111E2,3.2070462E2,1.9639406E2,4.2943246E2,1.5182462E2,4.564393E2,4.202905E2,6.037869E2,1.6623872E3,3.0344766E2,9.994628E2,8.5273474E2,6.5435616E1,1.9836935E2,5.5985332E1,9.384144E0,1.4598062E2,3.1845148E2,3.041565E2,2.9465393E1,3.3347363E2,8.239378E1,1.8627492E2,7.7519905E1,2.0291428E2,9.736833E0,1.6362033E2,1.5708429E2,3.6021637E1,1.6037242E2,2.6429166E2,1.6514082E2,4.1146896E1,1.1067771E2,1.2179906E2,3.3464026E2,7.00917E0,4.1328134E2],"tree_param":{"num_deleted":"0","num_feature":"84","num_nodes":"61","size_leaf_vector":"1"}},{"base_weights":[-4.074972E-3,-7.5654685E-1,1.4961565E0,-1.0117731E0,4.89842E-2,3.8165578E-1,2.078111E0,-1.0895113E0,-1.5593657E-1,-4.083719E-1,5.3565687E-1,-1.457618E-1,8.5008234E-1,1.5531365E0,2.439689E0,-1.274997E0,-9.0584594E-1,-4.646534E-1,2.4595545E-1,-4.7044862E-2,-9.067849E-1,2.0231552E-1,9.9083465E-1,4.1470563E-1,-3.6323878E-1,4.05987E-1,1.0435399E0,8.2562137E-1,1.784407E0,1.9580127E0,2.5353005E0,-3.9007522E-2,-2.9399922E-2,-2.3429507E-2,-3.595748E-2,-2.2034422E-2,1.4808959E-3,2.367584E-3,3.5294283E-2,-7.559232E-3,9.823234E-3,-3.1091819E-2,5.770216E-3,6.593026E-4,2.9349746E-2,2.2591079E-2,4.8274748E-2,-1.8213604E-3,2.7532736E-2,-1.9771721E-2,-1.165273E-3,-6.8873554E-3,1.6558629E-2,1.7939573E-2,3.7103534E-2,6.0040397E-3,3.520341E-2,4.1680466E-2,6.386717E-2,4.7979638E-2,6.489499E-2,6.87522E-2,7.906348E-2],"categories":[],"categories_nodes":[],"categories_segments":[],"categories_sizes":[],"default_left":[0,0,0,0,0,0,0,0,0,0,0,0,0,0,0,0,0,0,0,0,0,0,0,0,0,0,0,0,0,0,0,0,0,0,0,0,0,0,0,0,0,0,0,0,0,0,0,0,0,0,0,0,0,0,0,0,0,0,0,0,0,0,0],"id":2,"left_children":[1,3,5,7,9,11,13,15,17,19,21,23,25,27,29,31,33,35,37,39,41,43,45,47,49,51,53,55,57,59,61,-1,-1,-1,-1,-1,-1,-1,-1,-1,-1,-1,-1,-1,-1,-1,-1,-1,-1,-1,-1,-1,-1,-1,-1,-1,-1,-1,-1,-1,-1,-1,-1],"loss_changes":[9.474966E3,1.1493428E3,1.816665E3,2.8201514E2,3.0021323E2,2.3850117E2,3.4174756E2,1.3013867E2,4.439099E1,1.2509851E2,9.867876E1,5.57838E1,4.2983307E1,1.24215454E2,3.9898926E1,1.1722168E1,6.9749146E1,2.8126247E1,2.3973183E1,3.1265152E1,4.205017E1,5.3051357E1,3.7987823E1,3.0796728E1,3.1493778E1,1.496582E1,2.8960632E1,3.9985344E1,7.179541E1,6.7910156E0,9.625977E0,0E0,0E0,0E0,0E0,0E0,0E0,0E0,0E0,0E0,0E0,0E0,0E0,0E0,0E0,0E0,0E0,0E0,0E0,0E0,0E0,0E0,0E0,0E0,0E0,0E0,0E0,0E0,0E0,0E0,0E0,0E0,0E0],"parents":[2147483647,0,0,1,1,2,2,3,3,4,4,5,5,6,6,7,7,8,8,9,9,10,10,11,11,12,12,13,13,14,14,15,15,16,16,17,17,18,18,19,19,20,20,21,21,22,22,23,23,24,24,25,25,26,26,27,27,28,28,29,29,30,30],"right_children":[2,4,6,8,10,12,14,16,18,20,22,24,26,28,30,32,34,36,38,40,42,44,46,48,50,52,54,56,58,60,62,-1,-1,-1,-1,-1,-1,-1,-1,-1,-1,-1,-1,-1,-1,-1,-1,-1,-1,-1,-1,-1,-1,-1,-1,-1,-1,-1,-1,-1,-1,-1,-1],"split_conditions":[-9.287915E-2,3.195311E-1,1.4284228E0,-8.252427E-2,-9.351431E-2,2.1841657E-1,1.1485564E0,-7.4430764E-1,1.5738916E-1,1.2247449E0,9.927616E-1,-2.5682062E-1,-8.269287E-2,-2.6454487E-1,-7.563452E-2,-1.02733225E-1,1.2247449E0,-9.3074866E-2,2.873745E-1,7.9346365E-1,1E0,-2.3178082E-2,1.4051594E0,-1.6269898E-16,-3.481795E-1,-1.0778931E0,-8.3025075E-2,2.7924806E-1,-5.8389887E-2,1.4051594E0,1.4893727E0,-3.9007522E-2,-2.9399922E-2,-2.3429507E-2,-3.595748E-2,-2.2034422E-2,1.4808959E-3,2.367584E-3,3.5294283E-2,-7.559232E-3,9.823234E-3,-3.1091819E-2,5.770216E-3,6.593026E-4,2.9349746E-2,2.2591079E-2,4.8274748E-2,-1.8213604E-3,2.7532736E-2,-1.9771721E-2,-1.165273E-3,-6.8873554E-3,1.6558629E-2,1.7939573E-2,3.7103534E-2,6.0040397E-3,3.520341E-2,4.1680466E-2,6.386717E-2,4.7979638E-2,6.489499E-2,6.87522E-2,7.906348E-2],"split_indices":[13,11,51,14,14,11,11,11,35,58,11,10,65,9,13,13,58,64,55,11,74,14,11,58,11,34,13,11,13,11,11,0,0,0,0,0,0,0,0,0,0,0,0,0,0,0,0,0,0,0,0,0,0,0,0,0,0,0,0,0,0,0,0],"split_type":[0,0,0,0,0,0,0,0,0,0,0,0,0,0,0,0,0,0,0,0,0,0,0,0,0,0,0,0,0,0,0,0,0,0,0,0,0,0,0,0,0,0,0,0,0,0,0,0,0,0,0,0,0,0,0,0,0,0,0,0,0,0,0],"sum_hessian":[8.389258E3,5.587671E3,2.8015864E3,4.2428936E3,1.3447775E3,9.6222577E2,1.8393607E3,3.8890364E3,3.5385712E2,6.9338257E2,6.5139496E2,4.532109E2,5.0901483E2,7.5455414E2,1.0848065E3,1.9288806E3,1.9601558E3,2.000212E2,1.5383592E2,4.0329843E2,2.9008414E2,3.7775305E2,2.736419E2,1.2612531E2,3.270856E2,1.5641313E2,3.526017E2,1.842642E2,5.702899E2,1.8686934E2,8.979372E2,1.7703439E3,1.5853673E2,1.3793304E3,5.808253E2,1.3066795E2,6.935324E1,1.3230879E2,2.152714E1,2.6116772E2,1.421307E2,2.5962836E2,3.045578E1,3.0824118E2,6.951187E1,2.0089651E2,7.274541E1,6.5696754E1,6.0428555E1,1.699186E2,1.5716699E2,2.8935421E1,1.2747771E2,1.09221985E2,2.4337973E2,6.702652E1,1.1723768E2,2.7040762E2,2.9988232E2,7.448119E1,1.1238814E2,2.7570172E2,6.222355E2],"tree_param":{"num_deleted":"0","num_feature":"84","num_nodes":"63","size_leaf_vector":"1"}},{"base_weights":[1.6539624E-3,-7.5463456E-1,1.4461569E0,-9.575904E-1,1.801819E-1,5.450194E-1,2.0635426E0,-1.1476347E0,-5.3596705E-1,-1.9140232E-1,9.055059E-1,-1.4999166E-2,1.0278293E0,1.5694155E0,2.3745604E0,-1.2672111E0,-9.8976845E-1,-2.769568E-1,-9.5536673E-1,-4.4928148E-1,3.0511472E-1,-6.592664E-1,9.864349E-1,-3.411314E-1,3.071502E-1,4.6003708E-1,1.2555071E0,9.4717735E-1,1.7860554E0,2.1529903E0,7.5321965E-2,-3.9983228E-2,-3.5177037E-2,-2.5764296E-2,-3.4394518E-2,-1.399311E-2,9.705502E-3,-3.168834E-2,1.0369466E-2,-2.0902118E-2,-3.1056646E-3,-5.150677E-4,2.6386034E-2,-2.8274585E-2,7.142913E-5,2.0727655E-2,4.1745678E-2,2.0000838E-2,-1.2577923E-2,-7.577253E-3,1.3945503E-2,4.374341E-3,2.4143154E-2,2.3495685E-2,4.425816E-2,7.1467394E-3,3.8411256E-2,4.166087E-2,6.2144957E-2,6.765042E-2,4.5581557E-2],"categories":[],"categories_nodes":[],"categories_segments":[],"categories_sizes":[],"default_left":[0,0,0,0,0,0,0,0,0,0,0,0,0,0,0,0,0,0,0,0,0,0,0,0,0,0,0,0,0,0,0,0,0,0,0,0,0,0,0,0,0,0,0,0,0,0,0,0,0,0,0,0,0,0,0,0,0,0,0,0,0],"id":3,"left_children":[1,3,5,7,9,11,13,15,17,19,21,23,25,27,29,31,33,35,37,39,41,43,45,47,49,51,53,55,57,59,-1,-1,-1,-1,-1,-1,-1,-1,-1,-1,-1,-1,-1,-1,-1,-1,-1,-1,-1,-1,-1,-1,-1,-1,-1,-1,-1,-1,-1,-1,-1],"loss_changes":[9.135504E3,1.0417197E3,1.5963848E3,3.6005225E2,2.6469928E2,3.1672592E2,2.5431201E2,5.6026855E1,1.5203912E2,8.3519394E1,4.343753E1,5.7378265E1,8.006946E1,8.604431E1,2.0398926E1,7.67334E0,2.560315E1,9.9467674E1,7.107623E1,3.649874E1,4.1420742E1,3.3355227E0,3.593109E1,2.1918875E1,2.4493408E1,1.9567646E1,4.4050537E1,4.0866135E1,4.970935E1,1.951831E1,0E0,0E0,0E0,0E0,0E0,0E0,0E0,0E0,0E0,0E0,0E0,0E0,0E0,0E0,0E0,0E0,0E0,0E0,0E0,0E0,0E0,0E0,0E0,0E0,0E0,0E0,0E0,0E0,0E0,0E0,0E0],"parents":[2147483647,0,0,1,1,2,2,3,3,4,4,5,5,6,6,7,7,8,8,9,9,10,10,11,11,12,12,13,13,14,14,15,15,16,16,17,17,18,18,19,19,20,20,21,21,22,22,23,23,24,24,25,25,26,26,27,27,28,28,29,29],"right_children":[2,4,6,8,10,12,14,16,18,20,22,24,26,28,30,32,34,36,38,40,42,44,46,48,50,52,54,56,58,60,-1,-1,-1,-1,-1,-1,-1,-1,-1,-1,-1,-1,-1,-1,-1,-1,-1,-1,-1,-1,-1,-1,-1,-1,-1,-1,-1,-1,-1,-1,-1],"split_conditions":[1.4343779E0,1.4284228E0,-8.322163E-2,-1.2489604E-1,7.202415E-1,9.425171E-2,1.1088686E0,-8.132561E-1,1.2247449E0,5.238378E-1,-1.4151546E0,8.6045104E-1,-8.2624E-2,-2.9625267E-1,1.9277577E0,-9.7201735E-1,7.0710677E-1,3.6395997E-1,1E0,-2.663983E-1,-2.0281827E-1,-4.228659E-2,1.0515679E0,-1.4883993E0,-2.6746312E-1,-6.297457E-2,-8.3025075E-2,6.4038727E-3,-6.331693E-2,1.2247449E0,7.5321965E-2,-3.9983228E-2,-3.5177037E-2,-2.5764296E-2,-3.4394518E-2,-1.399311E-2,9.705502E-3,-3.168834E-2,1.0369466E-2,-2.0902118E-2,-3.1056646E-3,-5.150677E-4,2.6386034E-2,-2.8274585E-2,7.142913E-5,2.0727655E-2,4.1745678E-2,2.0000838E-2,-1.2577923E-2,-7.577253E-3,1.3945503E-2,4.374341E-3,2.4143154E-2,2.3495685E-2,4.425816E-2,7.1467394E-3,3.8411256E-2,4.166087E-2,6.2144957E-2,6.765042E-2,4.5581557E-2],"split_indices":[50,51,19,11,11,12,12,11,58,32,32,1,65,9,12,12,58,12,74,42,12,22,12,10,23,18,13,12,13,58,0,0,0,0,0,0,0,0,0,0,0,0,0,0,0,0,0,0,0,0,0,0,0,0,0,0,0,0,0,0,0],"split_type":[0,0,0,0,0,0,0,0,0,0,0,0,0,0,0,0,0,0,0,0,0,0,0,0,0,0,0,0,0,0,0,0,0,0,0,0,0,0,0,0,0,0,0,0,0,0,0,0,0,0,0,0,0,0,0,0,0,0,0,0,0],"sum_hessian":[8.358286E3,5.486616E3,2.8716697E3,4.5079175E3,9.786989E2,1.1690983E3,1.7025714E3,3.1048582E3,1.4030594E3,6.4808673E2,3.306122E2,5.421197E2,6.269786E2,6.6241595E2,1.0401555E3,1.7585027E3,1.3463553E3,8.695117E2,5.3354767E2,4.2673938E2,2.2134735E2,1.5524949E1,3.1508725E2,2.694131E2,2.727066E2,1.8124448E2,4.4573407E2,1.7390305E2,4.8851288E2,4.08865E2,6.312905E2,1.0230811E3,7.354216E2,7.406847E2,6.0567065E2,6.613512E2,2.0816054E2,4.955275E2,3.802016E1,2.4746025E2,1.7927914E2,1.4298015E2,7.8367195E1,1.0329881E1,5.195069E0,1.8538377E2,1.2970349E2,1.8253782E1,2.5115932E2,5.9610485E1,2.1309613E2,9.638265E1,8.4861824E1,1.445096E2,3.0122446E2,5.6745136E1,1.1715791E2,2.0919794E2,2.7931494E2,3.4768362E2,6.1181374E1],"tree_param":{"num_deleted":"0","num_feature":"84","num_nodes":"61","size_leaf_vector":"1"}},{"base_weights":[-6.1183684E-3,-7.32906E-1,1.3760163E0,-9.82029E-1,4.4165768E-2,3.698986E-1,1.8893536E0,-1.1215163E0,-5.4245126E-1,-7.3970944E-1,3.7263134E-1,-1.5307938E-1,7.7123636E-1,1.2372104E0,2.176969E0,-1.25934E0,-9.6228284E-1,-6.923216E-1,1.9356236E-2,-8.786934E-1,1.0975854E-1,1.9833446E-1,1.2402133E0,-7.319406E-1,4.2431235E-2,3.908416E-1,1.0178367E0,1.5777079E0,8.3208877E-1,1.6846138E0,2.26862E0,-4.0234208E-2,-3.596464E-2,-3.230019E-2,-2.06975E-2,-2.6135722E-2,-1.3344868E-2,-9.03752E-3,8.47686E-3,-8.317477E-3,-3.1450473E-2,2.1287149E-2,-8.911424E-3,1.8630987E-3,3.4521326E-2,1.7969174E-2,4.4299766E-2,-2.3927182E-2,9.576203E-3,2.922975E-2,-1.442671E-3,1.8355105E-2,-1.6914667E-3,2.4823694E-2,4.451265E-2,5.8612276E-2,3.5501737E-2,3.9471076E-3,3.1223467E-2,4.0531054E-2,5.7178326E-2,6.0966123E-2,7.125233E-2],"categories":[],"categories_nodes":[],"categories_segments":[],"categories_sizes":[],"default_left":[0,0,0,0,0,0,0,0,0,0,0,0,0,0,0,0,0,0,0,0,0,0,0,0,0,0,0,0,0,0,0,0,0,0,0,0,0,0,0,0,0,0,0,0,0,0,0,0,0,0,0,0,0,0,0,0,0,0,0,0,0,0,0],"id":4,"left_children":[1,3,5,7,9,11,13,15,17,19,21,23,25,27,29,31,33,35,37,39,41,43,45,47,49,51,53,55,57,59,61,-1,-1,-1,-1,-1,-1,-1,-1,-1,-1,-1,-1,-1,-1,-1,-1,-1,-1,-1,-1,-1,-1,-1,-1,-1,-1,-1,-1,-1,-1,-1,-1],"loss_changes":[8.409577E3,1.0622786E3,1.4885825E3,2.5345605E2,3.4396225E2,2.0537926E2,3.526709E2,6.6640625E1,8.466223E1,4.6806335E1,1.4178189E2,4.8300488E1,5.1036896E1,7.8530945E1,5.184326E1,4.9887695E0,4.4259033E1,3.4278534E1,1.818326E1,3.3973938E1,1.4398522E1,1.01812E2,2.193872E1,7.9639893E0,2.7152092E1,2.193359E1,2.708725E1,4.2347168E1,3.9632324E1,1.0592346E1,1.8044434E1,0E0,0E0,0E0,0E0,0E0,0E0,0E0,0E0,0E0,0E0,0E0,0E0,0E0,0E0,0E0,0E0,0E0,0E0,0E0,0E0,0E0,0E0,0E0,0E0,0E0,0E0,0E0,0E0,0E0,0E0,0E0,0E0],"parents":[2147483647,0,0,1,1,2,2,3,3,4,4,5,5,6,6,7,7,8,8,9,9,10,10,11,11,12,12,13,13,14,14,15,15,16,16,17,17,18,18,19,19,20,20,21,21,22,22,23,23,24,24,25,25,26,26,27,27,28,28,29,29,30,30],"right_children":[2,4,6,8,10,12,14,16,18,20,22,24,26,28,30,32,34,36,38,40,42,44,46,48,50,52,54,56,58,60,62,-1,-1,-1,-1,-1,-1,-1,-1,-1,-1,-1,-1,-1,-1,-1,-1,-1,-1,-1,-1,-1,-1,-1,-1,-1,-1,-1,-1,-1,-1,-1,-1],"split_conditions":[1.4343779E0,-3.7144627E-2,1.4284228E0,-9.6982375E-2,-1.0136458E0,-9.86042E-2,7.202206E-1,-8.181775E-1,-6.933623E-2,1.1088686E0,1.0748026E0,-7.095847E-1,-8.2624E-2,-2.7420935E-1,-7.838564E-2,-1.0416116E0,7.557904E-2,8.6242086E-1,1.8836668E-1,1.2247449E0,-8.710627E-1,-3.5059035E-2,-2.755758E-1,6.809739E-1,-1.4883993E0,-5.628534E-2,9.724463E-1,-7.0710677E-1,-2.5475544E-1,1.4429386E0,1.5770229E0,-4.0234208E-2,-3.596464E-2,-3.230019E-2,-2.06975E-2,-2.6135722E-2,-1.3344868E-2,-9.03752E-3,8.47686E-3,-8.317477E-3,-3.1450473E-2,2.1287149E-2,-8.911424E-3,1.8630987E-3,3.4521326E-2,1.7969174E-2,4.4299766E-2,-2.3927182E-2,9.576203E-3,2.922975E-2,-1.442671E-3,1.8355105E-2,-1.6914667E-3,2.4823694E-2,4.451265E-2,5.8612276E-2,3.5501737E-2,3.9471076E-3,3.1223467E-2,4.0531054E-2,5.7178326E-2,6.0966123E-2,7.125233E-2],"split_indices":[50,12,51,19,32,12,12,12,14,12,12,12,65,10,18,12,35,0,35,58,10,19,42,30,10,10,12,59,69,5,12,0,0,0,0,0,0,0,0,0,0,0,0,0,0,0,0,0,0,0,0,0,0,0,0,0,0,0,0,0,0,0,0],"split_type":[0,0,0,0,0,0,0,0,0,0,0,0,0,0,0,0,0,0,0,0,0,0,0,0,0,0,0,0,0,0,0,0,0,0,0,0,0,0,0,0,0,0,0,0,0,0,0,0,0,0,0,0,0,0,0,0,0,0,0,0,0,0,0],"sum_hessian":[8.367775E3,5.484669E3,2.8831064E3,4.152839E3,1.3318303E3,9.75233E2,1.9078734E3,3.1500461E3,1.00279254E3,3.9249475E2,9.393356E2,4.2392914E2,5.513039E2,5.872077E2,1.3206656E3,1.6809648E3,1.4690813E3,7.913207E2,2.1147188E2,3.372984E2,5.519635E1,7.8428735E2,1.5504819E2,1.05711205E2,3.1821793E2,2.1894366E2,3.323602E2,3.158387E2,2.71369E2,2.1342746E2,1.1072383E3,6.9645245E2,9.845123E2,1.0302855E3,4.3879575E2,4.5629935E2,3.3502133E2,9.5123886E1,1.1634799E2,7.5435646E1,2.6186276E2,2.1754679E1,3.344167E1,6.880494E2,9.623801E1,4.37301E1,1.1131809E2,9.999754E1,5.7136636E0,2.649373E1,2.9172418E2,1.4611613E2,7.282752E1,2.3996619E2,9.239402E1,1.5755357E2,1.5828514E2,6.30914E1,2.0827759E2,9.0884636E1,1.2254283E2,3.5640317E2,7.50835E2],"tree_param":{"num_deleted":"0","num_feature":"84","num_nodes":"63","size_leaf_vector":"1"}},{"base_weights":[4.704611E-4,-7.192274E-1,1.3395218E0,-1.0241253E0,-1.3180023E-1,5.4041046E-1,1.9097222E0,-1.1870681E0,-7.291374E-1,-4.287416E-1,6.2417305E-1,1.0560796E-2,9.8169404E-1,1.2381591E0,2.0946534E0,-1.2739997E0,-1.0598794E0,-1.0560478E0,-5.570044E-1,-5.6189054E-1,2.5375757E-1,4.200931E-1,1.194015E0,-4.111029E-1,2.7207804E-1,4.9236485E-1,1.1916281E0,9.02679E-1,1.5335957E0,1.5846756E0,2.181927E0,-3.8724404E-2,-3.045512E-2,-3.3618703E-2,-1.889913E-2,-3.3251487E-2,-6.577481E-3,-2.2489177E-2,-5.59584E-3,-2.29179E-2,-8.399185E-3,1.5866188E-2,-9.702618E-3,9.447154E-3,3.981985E-2,-1.2329862E-2,3.7924442E-2,-1.4027331E-2,2.3297988E-2,1.5505719E-2,5.4956786E-4,-1.7046941E-2,1.7554013E-2,3.0879056E-2,5.1657993E-2,1.257571E-2,3.5242375E-2,2.763369E-2,5.249235E-2,3.7549317E-2,5.5383652E-2,5.9315253E-2,6.884844E-2],"categories":[],"categories_nodes":[],"categories_segments":[],"categories_sizes":[],"default_left":[0,0,0,0,0,0,0,0,0,0,0,0,0,0,0,0,0,0,0,0,0,0,0,0,0,0,0,0,0,0,0,0,0,0,0,0,0,0,0,0,0,0,0,0,0,0,0,0,0,0,0,0,0,0,0,0,0,0,0,0,0,0,0],"id":5,"left_children":[1,3,5,7,9,11,13,15,17,19,21,23,25,27,29,31,33,35,37,39,41,43,45,47,49,51,53,55,57,59,61,-1,-1,-1,-1,-1,-1,-1,-1,-1,-1,-1,-1,-1,-1,-1,-1,-1,-1,-1,-1,-1,-1,-1,-1,-1,-1,-1,-1,-1,-1,-1,-1],"loss_changes":[8.039719E3,9.715066E2,1.326666E3,1.6984985E2,4.17244E2,2.8453778E2,2.0591406E2,2.258545E1,7.0556274E1,1.2153346E2,5.988858E1,6.1438698E1,6.6958496E1,3.4004456E1,5.213037E1,3.1589355E0,2.3176025E1,1.8623016E1,5.9644775E1,6.31416E1,3.5142624E1,3.6222763E1,1.6514908E1,1.5014324E1,2.1318298E1,2.062362E1,3.6191833E1,2.2514557E1,2.2457825E1,1.280011E1,1.6884277E1,0E0,0E0,0E0,0E0,0E0,0E0,0E0,0E0,0E0,0E0,0E0,0E0,0E0,0E0,0E0,0E0,0E0,0E0,0E0,0E0,0E0,0E0,0E0,0E0,0E0,0E0,0E0,0E0,0E0,0E0,0E0,0E0],"parents":[2147483647,0,0,1,1,2,2,3,3,4,4,5,5,6,6,7,7,8,8,9,9,10,10,11,11,12,12,13,13,14,14,15,15,16,16,17,17,18,18,19,19,20,20,21,21,22,22,23,23,24,24,25,25,26,26,27,27,28,28,29,29,30,30],"right_children":[2,4,6,8,10,12,14,16,18,20,22,24,26,28,30,32,34,36,38,40,42,44,46,48,50,52,54,56,58,60,62,-1,-1,-1,-1,-1,-1,-1,-1,-1,-1,-1,-1,-1,-1,-1,-1,-1,-1,-1,-1,-1,-1,-1,-1,-1,-1,-1,-1,-1,-1,-1,-1],"split_conditions":[1.4343779E0,-9.791032E-2,-8.252427E-2,-3.6662355E-1,7.0360917E-1,9.425171E-2,5.072116E-1,-8.899694E-1,-9.1266257E-1,-5.1752172E-2,-5.8346193E-2,-4.9682325E-1,-8.2542226E-2,-6.0406055E-2,-7.838564E-2,-9.210511E-2,8.6531496E-1,1.0647676E0,-8.5176066E-2,-1.0407077E-1,-6.041016E-2,1.4340996E0,-1.6681437E-1,1E0,2.0294848E-1,-1.5751793E0,1.3728144E0,-1.6086195E-1,-1.7695086E-1,1.4429386E0,1.6209931E0,-3.8724404E-2,-3.045512E-2,-3.3618703E-2,-1.889913E-2,-3.3251487E-2,-6.577481E-3,-2.2489177E-2,-5.59584E-3,-2.29179E-2,-8.399185E-3,1.5866188E-2,-9.702618E-3,9.447154E-3,3.981985E-2,-1.2329862E-2,3.7924442E-2,-1.4027331E-2,2.3297988E-2,1.5505719E-2,5.4956786E-4,-1.7046941E-2,1.7554013E-2,3.0879056E-2,5.1657993E-2,1.257571E-2,3.5242375E-2,2.763369E-2,5.249235E-2,3.7549317E-2,5.5383652E-2,5.9315253E-2,6.884844E-2],"split_indices":[50,14,14,11,11,12,12,12,35,14,14,12,65,18,18,64,27,11,12,18,29,11,25,80,10,32,11,12,9,5,12,0,0,0,0,0,0,0,0,0,0,0,0,0,0,0,0,0,0,0,0,0,0,0,0,0,0,0,0,0,0,0,0],"split_type":[0,0,0,0,0,0,0,0,0,0,0,0,0,0,0,0,0,0,0,0,0,0,0,0,0,0,0,0,0,0,0,0,0,0,0,0,0,0,0,0,0,0,0,0,0,0,0,0,0,0,0,0,0,0,0,0,0,0,0,0,0,0,0],"sum_hessian":[8.338416E3,5.424049E3,2.914367E3,3.5696743E3,1.8543748E3,1.2152416E3,1.6991252E3,2.2954934E3,1.2741808E3,1.3320759E3,5.222989E2,5.5318866E2,6.62053E2,3.7025043E2,1.3288749E3,1.352591E3,9.429025E2,4.3585535E2,8.3832544E2,1.1149807E3,2.1709517E2,3.871937E2,1.3510518E2,2.1124594E2,3.4194272E2,2.0084288E2,4.6121008E2,1.7725284E2,1.9299757E2,1.9986475E2,1.1290101E3,1.2624161E3,9.017481E1,8.232512E2,1.1965131E2,4.0953342E2,2.6321915E1,5.5010693E2,2.882185E2,6.4741016E2,4.6757056E2,1.4719012E2,6.990504E1,3.4942905E2,3.7764664E1,5.2196198E0,1.2988556E2,2.02855E2,8.39095E0,1.7289517E2,1.6904755E2,1.5286623E1,1.8555626E2,3.5769577E2,1.0351433E2,6.572268E1,1.1153016E2,5.314948E1,1.398481E2,9.307339E1,1.0679135E2,4.1486353E2,7.1414655E2],"tree_param":{"num_deleted":"0","num_feature":"84","num_nodes":"63","size_leaf_vector":"1"}},{"base_weights":[-5.7388266E-4,-7.045375E-1,1.2879047E0,-9.534827E-1,1.3098727E-2,4.1192293E-1,1.7637757E0,-1.070795E0,-4.350745E-1,-7.1310294E-1,3.037343E-1,-1.6036328E-2,8.112185E-1,1.1946535E0,2.008345E0,-1.2259045E0,-9.180336E-1,-6.159698E-1,1.2852349E-2,-9.283756E-1,-1.6933405E-1,1.08478345E-1,9.27995E-1,-6.0986686E-1,1.5152384E-1,3.87145E-1,1.0149443E0,1.4578339E0,7.553847E-1,1.8139572E0,6.581338E-2,-3.7555084E-2,-3.0178044E-2,-3.501335E-2,-2.5270272E-2,1.1940572E-2,-2.0231012E-2,-7.2941002E-3,1.0197776E-2,-2.9654866E-2,2.3917496E-2,-8.863653E-3,4.284038E-2,-2.4956922E-4,3.3562105E-2,1.8243866E-2,4.308721E-2,-5.978491E-3,-2.2205913E-2,-4.4139535E-3,1.3767051E-2,3.8271775E-3,2.7137695E-2,2.2033928E-2,4.2801857E-2,3.492337E-2,5.4772407E-2,9.699755E-3,3.0709544E-2,2.4843827E-2,5.58443E-2],"categories":[],"categories_nodes":[],"categories_segments":[],"categories_sizes":[],"default_left":[0,0,0,0,0,0,0,0,0,0,0,0,0,0,0,0,0,0,0,0,0,0,0,0,0,0,0,0,0,0,0,0,0,0,0,0,0,0,0,0,0,0,0,0,0,0,0,0,0,0,0,0,0,0,0,0,0,0,0,0,0],"id":6,"left_children":[1,3,5,7,9,11,13,15,17,19,21,23,25,27,29,31,33,35,37,39,41,43,45,47,49,51,53,55,57,59,-1,-1,-1,-1,-1,-1,-1,-1,-1,-1,-1,-1,-1,-1,-1,-1,-1,-1,-1,-1,-1,-1,-1,-1,-1,-1,-1,-1,-1,-1,-1],"loss_changes":[7.5081016E3,9.563977E2,1.2175664E3,2.4069946E2,2.918022E2,1.7644073E2,2.587295E2,7.44021E1,5.975238E1,4.5887054E1,1.2010705E2,4.996796E1,4.5283325E1,6.409241E1,3.9495117E1,6.5029297E0,2.8857056E1,3.1638535E1,1.8075644E1,3.0901093E1,2.3870901E1,8.91022E1,3.6345276E1,5.5720596E0,3.6096954E1,2.3439817E1,3.9309937E1,3.4176147E1,2.4704224E1,2.7565918E1,0E0,0E0,0E0,0E0,0E0,0E0,0E0,0E0,0E0,0E0,0E0,0E0,0E0,0E0,0E0,0E0,0E0,0E0,0E0,0E0,0E0,0E0,0E0,0E0,0E0,0E0,0E0,0E0,0E0,0E0,0E0],"parents":[2147483647,0,0,1,1,2,2,3,3,4,4,5,5,6,6,7,7,8,8,9,9,10,10,11,11,12,12,13,13,14,14,15,15,16,16,17,17,18,18,19,19,20,20,21,21,22,22,23,23,24,24,25,25,26,26,27,27,28,28,29,29],"right_children":[2,4,6,8,10,12,14,16,18,20,22,24,26,28,30,32,34,36,38,40,42,44,46,48,50,52,54,56,58,60,-1,-1,-1,-1,-1,-1,-1,-1,-1,-1,-1,-1,-1,-1,-1,-1,-1,-1,-1,-1,-1,-1,-1,-1,-1,-1,-1,-1,-1,-1,-1],"split_conditions":[1.4343779E0,-8.5176066E-2,-8.780854E-2,-9.4688915E-2,-1.0136458E0,8.038684E-2,7.202206E-1,-8.132561E-1,-7.1754344E-2,9.011177E-1,8.532008E-1,-7.0246893E-1,-8.3025075E-2,-1.0335327E-1,1.9277577E0,9.2811215E-1,-9.1266257E-1,-2.6067016E-1,-2.7549735E-1,1.4142135E0,-5.6880068E-2,-1.6711377E-2,1.3486313E0,-8.179479E-1,8.6045104E-1,3.580807E-1,8.1020236E-1,-3.621822E-2,-7.838564E-2,-9.7638774E-1,6.581338E-2,-3.7555084E-2,-3.0178044E-2,-3.501335E-2,-2.5270272E-2,1.1940572E-2,-2.0231012E-2,-7.2941002E-3,1.0197776E-2,-2.9654866E-2,2.3917496E-2,-8.863653E-3,4.284038E-2,-2.4956922E-4,3.3562105E-2,1.8243866E-2,4.308721E-2,-5.978491E-3,-2.2205913E-2,-4.4139535E-3,1.3767051E-2,3.8271775E-3,2.7137695E-2,2.2033928E-2,4.2801857E-2,3.492337E-2,5.4772407E-2,9.699755E-3,3.0709544E-2,2.4843827E-2,5.58443E-2],"split_indices":[50,12,19,19,32,12,12,11,19,11,12,12,13,10,12,27,35,43,11,59,65,19,11,60,1,31,12,13,18,35,0,0,0,0,0,0,0,0,0,0,0,0,0,0,0,0,0,0,0,0,0,0,0,0,0,0,0,0,0,0,0],"split_type":[0,0,0,0,0,0,0,0,0,0,0,0,0,0,0,0,0,0,0,0,0,0,0,0,0,0,0,0,0,0,0,0,0,0,0,0,0,0,0,0,0,0,0,0,0,0,0,0,0,0,0,0,0,0,0,0,0,0,0,0,0],"sum_hessian":[8.273599E3,5.3510073E3,2.9225913E3,3.9724072E3,1.3785999E3,1.0301432E3,1.8924482E3,3.2375447E3,7.348626E2,3.931556E2,9.8544434E2,4.9809097E2,5.3205225E2,5.724074E2,1.3200408E3,1.5992931E3,1.6382515E3,5.230074E2,2.1185522E2,2.80573E2,1.1258259E2,7.525041E2,2.3294022E2,1.0851932E2,3.8957166E2,1.7461713E2,3.5743512E2,3.549774E2,2.1743001E2,6.5512177E2,6.64919E2,1.4220421E3,1.7725093E2,3.749378E2,1.2633137E3,2.7800594E1,4.9520682E2,1.1904402E2,9.28112E1,2.7198065E2,8.592367E0,1.0588374E2,6.698849E0,6.762554E2,7.624874E1,1.4572136E2,8.721886E1,2.7458296E1,8.106102E1,1.9803558E2,1.9153609E2,1.1800866E2,5.6608467E1,2.1599937E2,1.4143576E2,2.0209773E2,1.5287965E2,8.5049545E1,1.3238046E2,3.186952E1,6.2325226E2],"tree_param":{"num_deleted":"0","num_feature":"84","num_nodes":"61","size_leaf_vector":"1"}},{"base_weights":[-8.750281E-3,-6.967702E-1,1.2317067E0,-9.5298475E-1,-1.679407E-2,3.3787742E-1,1.6810974E0,-1.023259E0,-2.0693155E-1,-4.7040686E-1,3.8854533E-1,-1.6410673E-1,7.1301913E-1,1.0133758E0,1.8846045E0,-1.189791E0,-8.4978545E-1,-3.1292564E-1,5.848379E-1,-1.5416113E-1,-9.0785617E-1,1.101999E-2,7.0657533E-1,-7.48281E-1,2.732823E-2,3.3568057E-1,9.523492E-1,5.6089646E-1,1.2202132E0,1.4275302E0,2.0005825E0,-3.6950517E-2,-3.0724304E-2,-2.0628352E-2,-3.1239336E-2,-1.5891792E-2,3.0547095E-4,-4.0083714E-3,3.1333234E-2,5.162137E-4,-1.7892156E-2,-2.9698838E-2,5.3273677E-3,-6.203689E-3,2.1943508E-2,1.5568789E-2,3.567296E-2,-2.4544094E-2,-3.0948806E-3,-8.527799E-3,9.879789E-3,-1.9378813E-2,1.2490163E-2,3.0465133E-2,-2.7510417E-3,3.0484826E-3,2.9878743E-2,2.6525892E-2,4.778084E-2,3.8519274E-2,5.747903E-2,5.3592775E-2,6.327568E-2],"categories":[],"categories_nodes":[],"categories_segments":[],"categories_sizes":[],"default_left":[0,0,0,0,0,0,0,0,0,0,0,0,0,0,0,0,0,0,0,0,0,0,0,0,0,0,0,0,0,0,0,0,0,0,0,0,0,0,0,0,0,0,0,0,0,0,0,0,0,0,0,0,0,0,0,0,0,0,0,0,0,0,0],"id":7,"left_children":[1,3,5,7,9,11,13,15,17,19,21,23,25,27,29,31,33,35,37,39,41,43,45,47,49,51,53,55,57,59,61,-1,-1,-1,-1,-1,-1,-1,-1,-1,-1,-1,-1,-1,-1,-1,-1,-1,-1,-1,-1,-1,-1,-1,-1,-1,-1,-1,-1,-1,-1,-1,-1],"loss_changes":[7.072239E3,9.285469E2,1.1862749E3,2.0248364E2,2.689716E2,1.8700073E2,2.632876E2,1.000708E2,2.8536858E1,9.516919E1,9.269961E1,4.7681755E1,5.058667E1,4.1947815E1,7.389551E1,9.853516E0,5.2520508E1,2.0879833E1,1.362912E1,3.0602951E1,2.6164368E1,5.6084396E1,3.6629333E1,4.526058E0,3.0534737E1,1.8229744E1,2.307019E1,2.9570011E1,3.66745E1,1.6772034E1,2.00708E1,0E0,0E0,0E0,0E0,0E0,0E0,0E0,0E0,0E0,0E0,0E0,0E0,0E0,0E0,0E0,0E0,0E0,0E0,0E0,0E0,0E0,0E0,0E0,0E0,0E0,0E0,0E0,0E0,0E0,0E0,0E0,0E0],"parents":[2147483647,0,0,1,1,2,2,3,3,4,4,5,5,6,6,7,7,8,8,9,9,10,10,11,11,12,12,13,13,14,14,15,15,16,16,17,17,18,18,19,19,20,20,21,21,22,22,23,23,24,24,25,25,26,26,27,27,28,28,29,29,30,30],"right_children":[2,4,6,8,10,12,14,16,18,20,22,24,26,28,30,32,34,36,38,40,42,44,46,48,50,52,54,56,58,60,62,-1,-1,-1,-1,-1,-1,-1,-1,-1,-1,-1,-1,-1,-1,-1,-1,-1,-1,-1,-1,-1,-1,-1,-1,-1,-1,-1,-1,-1,-1,-1,-1],"split_conditions":[1.4343779E0,1.9196811E-1,1.4284228E0,-8.322163E-2,-9.4688915E-2,-9.86042E-2,5.072116E-1,-8.181775E-1,1.9428666E-1,1.2247449E0,7.636517E-1,-7.095847E-1,-8.2624E-2,-2.2493838E-1,-7.563452E-2,-9.927583E-2,7.0710677E-1,-1.0407077E-1,-3.3304814E-1,1.3908856E-1,1E0,4.7524795E-1,-5.340669E-2,1.2200385E0,-1.6269898E-16,-1.5751793E0,1E0,-2.0133495E-2,-5.270052E-2,1.9277577E0,1.503972E0,-3.6950517E-2,-3.0724304E-2,-2.0628352E-2,-3.1239336E-2,-1.5891792E-2,3.0547095E-4,-4.0083714E-3,3.1333234E-2,5.162137E-4,-1.7892156E-2,-2.9698838E-2,5.3273677E-3,-6.203689E-3,2.1943508E-2,1.5568789E-2,3.567296E-2,-2.4544094E-2,-3.0948806E-3,-8.527799E-3,9.879789E-3,-1.9378813E-2,1.2490163E-2,3.0465133E-2,-2.7510417E-3,3.0484826E-3,2.9878743E-2,2.6525892E-2,4.778084E-2,3.8519274E-2,5.747903E-2,5.3592775E-2,6.327568E-2],"split_indices":[50,11,51,19,19,12,12,12,19,58,11,12,65,9,13,19,58,18,9,29,74,35,19,31,58,32,78,12,18,12,12,0,0,0,0,0,0,0,0,0,0,0,0,0,0,0,0,0,0,0,0,0,0,0,0,0,0,0,0,0,0,0,0],"split_type":[0,0,0,0,0,0,0,0,0,0,0,0,0,0,0,0,0,0,0,0,0,0,0,0,0,0,0,0,0,0,0,0,0,0,0,0,0,0,0,0,0,0,0,0,0,0,0,0,0,0,0,0,0,0,0,0,0,0,0,0,0,0,0],"sum_hessian":[8.282579E3,5.328205E3,2.9543738E3,3.869357E3,1.458848E3,9.896312E2,1.9647424E3,3.5355198E3,3.3383725E2,6.8833685E2,7.7051117E2,4.236838E2,5.659474E2,4.6178778E2,1.5029547E3,1.797725E3,1.7377947E3,2.9554535E2,3.8291916E1,4.0115128E2,2.871856E2,3.533202E2,4.1719098E2,1.0320171E2,3.204821E2,2.2159103E2,3.4435635E2,1.4727432E2,3.1451346E2,3.096518E2,1.1933029E3,1.4243324E3,3.7339264E2,9.46116E2,7.9167865E2,1.761961E2,1.1934923E2,1.5450122E1,2.2841793E1,2.9042255E2,1.1072873E2,2.671962E2,1.9989416E1,2.7233957E2,8.098064E1,3.0345547E2,1.13735504E2,9.256462E1,1.06370945E1,1.5771288E2,1.6276921E2,1.5713579E1,2.0587746E2,3.2481094E2,1.9545424E1,7.289914E1,7.437518E1,1.6896841E2,1.4554504E2,2.450038E2,6.464801E1,4.134327E2,7.798702E2],"tree_param":{"num_deleted":"0","num_feature":"84","num_nodes":"63","size_leaf_vector":"1"}},{"base_weights":[1.3263929E-3,-6.7418444E-1,1.2008194E0,-9.1069156E-1,3.9802063E-2,4.5970747E-1,1.6935614E0,-1.0501547E0,-4.8549765E-1,-6.5452594E-1,3.1195444E-1,-1.5131114E-1,7.5677145E-1,1.2975283E0,1.9392291E0,-1.1901354E0,-8.793208E-1,-6.324933E-1,6.524571E-2,-1.174818E-3,-8.313462E-1,1.3272859E-1,9.578401E-1,-6.3035065E-1,1.9823497E-2,3.7363124E-1,1.0366175E0,7.237958E-1,1.4696106E0,1.6929077E0,2.027221E0,-3.77601E-2,-3.3058114E-2,-2.2698473E-2,-3.449398E-2,-2.6562462E-2,-1.3484885E-2,-6.275699E-3,1.0823689E-2,-1.1851226E-2,2.4588384E-2,-2.7111402E-2,1.5548218E-2,1.0385915E-3,3.608797E-2,1.9354643E-2,4.3931153E-2,-2.0914953E-2,7.973419E-3,-7.986649E-3,9.0985615E-3,1.8545957E-2,-1.4622834E-4,1.8689768E-2,3.685545E-2,6.661563E-3,3.2059826E-2,3.415903E-2,5.1327754E-2,2.5807623E-2,5.2136518E-2,5.145787E-2,6.1933663E-2],"categories":[],"categories_nodes":[],"categories_segments":[],"categories_sizes":[],"default_left":[0,0,0,0,0,0,0,0,0,0,0,0,0,0,0,0,0,0,0,0,0,0,0,0,0,0,0,0,0,0,0,0,0,0,0,0,0,0,0,0,0,0,0,0,0,0,0,0,0,0,0,0,0,0,0,0,0,0,0,0,0,0,0],"id":8,"left_children":[1,3,5,7,9,11,13,15,17,19,21,23,25,27,29,31,33,35,37,39,41,43,45,47,49,51,53,55,57,59,61,-1,-1,-1,-1,-1,-1,-1,-1,-1,-1,-1,-1,-1,-1,-1,-1,-1,-1,-1,-1,-1,-1,-1,-1,-1,-1,-1,-1,-1,-1,-1,-1],"loss_changes":[6.687489E3,8.9169336E2,1.0841826E3,2.3409863E2,2.4899768E2,2.1630379E2,1.684956E2,6.918091E1,7.97258E1,4.282399E1,1.092656E2,3.210836E1,8.506717E1,6.584424E1,1.6740723E1,6.989502E0,4.303943E1,3.5076813E1,1.7103842E1,2.6843458E1,2.9472046E1,7.790336E1,3.050978E1,6.5622177E0,2.3671923E1,3.1641758E1,3.5035553E1,2.7685188E1,3.8169067E1,8.159302E0,2.0039062E0,0E0,0E0,0E0,0E0,0E0,0E0,0E0,0E0,0E0,0E0,0E0,0E0,0E0,0E0,0E0,0E0,0E0,0E0,0E0,0E0,0E0,0E0,0E0,0E0,0E0,0E0,0E0,0E0,0E0,0E0,0E0,0E0],"parents":[2147483647,0,0,1,1,2,2,3,3,4,4,5,5,6,6,7,7,8,8,9,9,10,10,11,11,12,12,13,13,14,14,15,15,16,16,17,17,18,18,19,19,20,20,21,21,22,22,23,23,24,24,25,25,26,26,27,27,28,28,29,29,30,30],"right_children":[2,4,6,8,10,12,14,16,18,20,22,24,26,28,30,32,34,36,38,40,42,44,46,48,50,52,54,56,58,60,62,-1,-1,-1,-1,-1,-1,-1,-1,-1,-1,-1,-1,-1,-1,-1,-1,-1,-1,-1,-1,-1,-1,-1,-1,-1,-1,-1,-1,-1,-1,-1,-1],"split_conditions":[1.4343779E0,-3.7144627E-2,-8.322163E-2,-9.6982375E-2,-1.0136458E0,-2.2519498E-1,1.1088686E0,-7.289858E-1,-6.933623E-2,1.2247449E0,1.1621963E0,-7.2587365E-1,-9.6982375E-2,-4.0054265E-1,-6.0406055E-2,-9.7201735E-1,1.2247449E0,-6.625063E-1,-2.9679957E-1,8.6045104E-1,1.5278796E0,1.5397021E-2,-6.933623E-2,6.485988E-1,-1.6269898E-16,-1.15233116E-1,-8.3025075E-2,6.297106E-1,-6.331693E-2,-9.989571E-1,-6.7138225E-2,-3.77601E-2,-3.3058114E-2,-2.2698473E-2,-3.449398E-2,-2.6562462E-2,-1.3484885E-2,-6.275699E-3,1.0823689E-2,-1.1851226E-2,2.4588384E-2,-2.7111402E-2,1.5548218E-2,1.0385915E-3,3.608797E-2,1.9354643E-2,4.3931153E-2,-2.0914953E-2,7.973419E-3,-7.986649E-3,9.0985615E-3,1.8545957E-2,-1.4622834E-4,1.8689768E-2,3.685545E-2,6.661563E-3,3.2059826E-2,3.415903E-2,5.1327754E-2,2.5807623E-2,5.2136518E-2,5.145787E-2,6.1933663E-2],"split_indices":[50,12,19,19,32,12,12,11,14,58,11,12,19,9,18,12,58,12,11,1,12,19,14,30,58,10,13,11,13,35,14,0,0,0,0,0,0,0,0,0,0,0,0,0,0,0,0,0,0,0,0,0,0,0,0,0,0,0,0,0,0,0,0],"split_type":[0,0,0,0,0,0,0,0,0,0,0,0,0,0,0,0,0,0,0,0,0,0,0,0,0,0,0,0,0,0,0,0,0,0,0,0,0,0,0,0,0,0,0,0,0,0,0,0,0,0,0,0,0,0,0,0,0,0,0,0,0,0,0],"sum_hessian":[8.249373E3,5.2778906E3,2.971482E3,3.9642554E3,1.3136355E3,1.1882517E3,1.7832302E3,2.9828318E3,9.814234E2,3.6906522E2,9.4457025E2,3.889825E2,7.9926917E2,6.875763E2,1.0956538E3,1.6327433E3,1.3500886E3,7.7450006E2,2.0692334E2,7.9097176E1,2.8996805E2,7.413442E2,2.0322609E2,1.01049774E2,2.8793274E2,3.3941776E2,4.598514E2,1.611144E2,5.264619E2,2.991819E2,7.96472E2,9.0353723E2,7.29206E2,9.3410364E2,4.1598502E2,3.2179462E2,4.5270547E2,1.0750849E2,9.941485E1,5.419115E1,2.4906029E1,2.758734E2,1.4094611E1,6.81024E2,6.032015E1,1.2852985E2,7.469624E1,9.450355E1,6.546225E0,1.4328609E2,1.4464664E2,2.0550102E2,1.3391675E2,1.4850662E2,3.113448E2,6.702809E1,9.40863E1,2.2690018E2,2.9956177E2,1.7452156E1,2.817297E2,9.510864E1,7.0136334E2],"tree_param":{"num_deleted":"0","num_feature":"84","num_nodes":"63","size_leaf_vector":"1"}},{"base_weights":[3.92285E-3,-6.585425E-1,1.1599195E0,-9.532118E-1,-9.097487E-2,3.2310298E-1,1.5756546E0,-1.0771056E0,-6.6079694E-1,-3.5371995E-1,5.1021093E-1,-3.7773773E-2,6.107817E-1,1.1658643E0,1.7870138E0,-1.1472052E0,-8.9632213E-1,-8.265983E-1,-3.840239E-1,-4.720712E-1,3.5779756E-1,4.02279E-1,1.4084992E0,3.484492E-1,-3.0294475E-1,2.1893339E-1,7.9579836E-1,5.3839856E-1,1.3297884E0,1.3421776E0,1.8681911E0,-3.530356E-2,-2.8512618E-2,-3.0169833E-2,-9.052909E-3,-3.0882875E-2,-2.1412449E-2,-1.7314656E-2,1.9439339E-3,-2.0617738E-2,-5.155766E-3,1.9995462E-2,-3.1820463E-3,1.8634869E-2,-9.3308196E-4,3.1622365E-2,5.278797E-2,3.8447846E-2,4.736404E-3,-1.6667176E-3,-1.7016673E-2,-5.673874E-3,1.10872E-2,4.6508823E-2,2.141939E-2,8.070919E-3,2.6291067E-2,3.0458238E-2,4.5072567E-2,2.6918015E-2,4.528916E-2,4.4981826E-2,5.7528544E-2],"categories":[],"categories_nodes":[],"categories_segments":[],"categories_sizes":[],"default_left":[0,0,0,0,0,0,0,0,0,0,0,0,0,0,0,0,0,0,0,0,0,0,0,0,0,0,0,0,0,0,0,0,0,0,0,0,0,0,0,0,0,0,0,0,0,0,0,0,0,0,0,0,0,0,0,0,0,0,0,0,0,0,0],"id":9,"left_children":[1,3,5,7,9,11,13,15,17,19,21,23,25,27,29,31,33,35,37,39,41,43,45,47,49,51,53,55,57,59,61,-1,-1,-1,-1,-1,-1,-1,-1,-1,-1,-1,-1,-1,-1,-1,-1,-1,-1,-1,-1,-1,-1,-1,-1,-1,-1,-1,-1,-1,-1,-1,-1],"loss_changes":[6.2736816E3,8.7074634E2,1.0371577E3,1.2267163E2,2.8183893E2,1.031776E2,1.6833252E2,2.8311035E1,4.6359283E1,1.0487213E2,5.13954E1,4.5509636E1,3.9677917E1,6.8839294E1,4.217334E1,7.6992188E0,4.360797E1,1.30789795E1,3.3732105E1,6.853427E1,2.5674658E1,4.6298866E1,3.2882233E0,3.1695429E1,1.7127256E1,1.1222359E1,2.0801239E1,1.2683147E1,2.6195618E1,1.2783325E1,1.4196533E1,0E0,0E0,0E0,0E0,0E0,0E0,0E0,0E0,0E0,0E0,0E0,0E0,0E0,0E0,0E0,0E0,0E0,0E0,0E0,0E0,0E0,0E0,0E0,0E0,0E0,0E0,0E0,0E0,0E0,0E0,0E0,0E0],"parents":[2147483647,0,0,1,1,2,2,3,3,4,4,5,5,6,6,7,7,8,8,9,9,10,10,11,11,12,12,13,13,14,14,15,15,16,16,17,17,18,18,19,19,20,20,21,21,22,22,23,23,24,24,25,25,26,26,27,27,28,28,29,29,30,30],"right_children":[2,4,6,8,10,12,14,16,18,20,22,24,26,28,30,32,34,36,38,40,42,44,46,48,50,52,54,56,58,60,62,-1,-1,-1,-1,-1,-1,-1,-1,-1,-1,-1,-1,-1,-1,-1,-1,-1,-1,-1,-1,-1,-1,-1,-1,-1,-1,-1,-1,-1,-1,-1,-1],"split_conditions":[1.4343779E0,-9.6982375E-2,1.4284228E0,8.6242086E-1,8.7648606E-1,-9.927583E-2,1.108385E0,6.1860424E-2,-2.5368512E-1,-3.5059035E-2,1.6557254E0,-2.5682062E-1,-2.403062E-1,-2.4347825E-1,-7.838564E-2,8.6045104E-1,-2.5996587E-1,-2.780611E-1,2.5543997E-1,-9.341721E-2,-2.2273521E-1,1.2247449E0,-5.7993602E-2,-1.2247449E0,-2.946281E-1,-2.6746312E-1,-1.2247449E0,-7.838564E-2,-6.811159E-2,-5.6394434E-1,-7.634126E-2,-3.530356E-2,-2.8512618E-2,-3.0169833E-2,-9.052909E-3,-3.0882875E-2,-2.1412449E-2,-1.7314656E-2,1.9439339E-3,-2.0617738E-2,-5.155766E-3,1.9995462E-2,-3.1820463E-3,1.8634869E-2,-9.3308196E-4,3.1622365E-2,5.278797E-2,3.8447846E-2,4.736404E-3,-1.6667176E-3,-1.7016673E-2,-5.673874E-3,1.10872E-2,4.6508823E-2,2.141939E-2,8.070919E-3,2.6291067E-2,3.0458238E-2,4.5072567E-2,2.6918015E-2,4.528916E-2,4.4981826E-2,5.7528544E-2],"split_indices":[50,19,51,0,5,19,55,35,69,19,55,10,69,23,18,1,55,23,32,64,29,58,19,59,30,23,59,18,18,35,19,0,0,0,0,0,0,0,0,0,0,0,0,0,0,0,0,0,0,0,0,0,0,0,0,0,0,0,0,0,0,0,0],"split_type":[0,0,0,0,0,0,0,0,0,0,0,0,0,0,0,0,0,0,0,0,0,0,0,0,0,0,0,0,0,0,0,0,0,0,0,0,0,0,0,0,0,0,0,0,0,0,0,0,0,0,0,0,0,0,0,0,0,0,0,0,0,0,0],"sum_hessian":[8.188214E3,5.205769E3,2.9824453E3,3.425746E3,1.7800227E3,9.9112476E2,1.9913204E3,2.4023506E3,1.0233955E3,1.2392998E3,5.4072296E2,4.403252E2,5.5079956E2,6.821035E2,1.3092169E3,1.7232034E3,6.791472E2,6.3740393E2,3.859916E2,1.0631951E3,1.7610472E2,4.8535724E2,5.536575E1,1.7891617E2,2.6140903E2,1.7814394E2,3.7265564E2,1.4312515E2,5.389784E2,2.0755283E2,1.1016641E3,1.4891451E3,2.3405817E2,5.7241364E2,1.06733574E2,2.2189452E2,4.155094E2,2.6954428E2,1.1644733E2,6.176964E2,4.454986E2,1.0527489E2,7.082983E1,3.2198474E2,1.6337251E2,3.1606836E1,2.3758911E1,2.83558E1,1.5056036E2,1.3636702E2,1.25042015E2,4.7804718E1,1.3033922E2,3.2886253E1,3.3976938E2,8.17272E1,6.1397945E1,1.9597874E2,3.4299963E2,6.031708E1,1.4723575E2,1.3772443E2,9.639397E2],"tree_param":{"num_deleted":"0","num_feature":"84","num_nodes":"63","size_leaf_vector":"1"}},{"base_weights":[-5.5382E-3,-6.495663E-1,1.1160483E0,-9.4324917E-1,-9.341349E-2,3.2418802E-1,1.5094274E0,-1.1156894E0,-7.080656E-1,-4.5857853E-1,3.3922005E-1,-3.6558326E-2,6.7899543E-1,1.0120722E0,1.7278944E0,-1.1417978E0,-7.494651E-1,-5.287377E-1,-1.023047E0,-5.9161323E-1,4.6962433E-2,1.637765E-1,9.300276E-1,-6.125059E-1,1.154237E-1,2.896587E-1,8.582145E-1,5.689609E-1,1.2165947E0,1.3431599E0,1.8189793E0,-3.6203902E-2,-3.089625E-2,-4.4787936E-3,-2.4497407E-2,-2.1480406E-2,-3.615727E-3,-3.2189477E-2,4.3870364E-3,-2.726618E-2,-1.4030735E-2,-7.0924876E-4,3.0517362E-2,1.1654825E-2,-1.0447599E-2,1.2612016E-2,3.4799628E-2,-2.0923136E-2,-1.00276644E-4,-3.955274E-3,1.0805806E-2,-2.3426035E-2,1.2051763E-2,1.610357E-2,3.2057118E-2,5.761778E-4,2.6411366E-2,3.0118577E-2,4.5948014E-2,3.6257505E-2,5.3701956E-2,4.848736E-2,5.7413712E-2],"categories":[],"categories_nodes":[],"categories_segments":[],"categories_sizes":[],"default_left":[0,0,0,0,0,0,0,0,0,0,0,0,0,0,0,0,0,0,0,0,0,0,0,0,0,0,0,0,0,0,0,0,0,0,0,0,0,0,0,0,0,0,0,0,0,0,0,0,0,0,0,0,0,0,0,0,0,0,0,0,0,0,0],"id":10,"left_children":[1,3,5,7,9,11,13,15,17,19,21,23,25,27,29,31,33,35,37,39,41,43,45,47,49,51,53,55,57,59,61,-1,-1,-1,-1,-1,-1,-1,-1,-1,-1,-1,-1,-1,-1,-1,-1,-1,-1,-1,-1,-1,-1,-1,-1,-1,-1,-1,-1,-1,-1,-1,-1],"loss_changes":[5.895151E3,8.465508E2,9.262383E2,1.359126E2,2.8371878E2,1.26876396E2,2.1240332E2,1.6875E1,8.022156E1,6.556883E1,8.4861755E1,4.332263E1,3.4305252E1,5.396393E1,4.3265625E1,1.0641113E1,5.184593E0,7.029495E1,3.074823E1,2.9396301E1,1.4115937E1,7.350029E1,2.0949387E1,5.305969E0,2.3813545E1,1.9874159E1,2.1829407E1,3.3650703E1,2.4710144E1,1.1860779E1,1.4952148E1,0E0,0E0,0E0,0E0,0E0,0E0,0E0,0E0,0E0,0E0,0E0,0E0,0E0,0E0,0E0,0E0,0E0,0E0,0E0,0E0,0E0,0E0,0E0,0E0,0E0,0E0,0E0,0E0,0E0,0E0,0E0,0E0],"parents":[2147483647,0,0,1,1,2,2,3,3,4,4,5,5,6,6,7,7,8,8,9,9,10,10,11,11,12,12,13,13,14,14,15,15,16,16,17,17,18,18,19,19,20,20,21,21,22,22,23,23,24,24,25,25,26,26,27,27,28,28,29,29,30,30],"right_children":[2,4,6,8,10,12,14,16,18,20,22,24,26,28,30,32,34,36,38,40,42,44,46,48,50,52,54,56,58,60,62,-1,-1,-1,-1,-1,-1,-1,-1,-1,-1,-1,-1,-1,-1,-1,-1,-1,-1,-1,-1,-1,-1,-1,-1,-1,-1,-1,-1,-1,-1,-1,-1],"split_conditions":[1.4343779E0,-9.6982375E-2,1.4284228E0,-6.268639E-1,-3.7144627E-2,9.425171E-2,7.202206E-1,-1.00269705E-1,1.2247449E0,-6.933623E-2,1.0515679E0,-7.0246893E-1,-8.3025075E-2,-5.3640272E-2,-7.563452E-2,-9.1461444E-1,-1.2247449E0,-7.2787E-2,1E0,-8.2257295E-1,1.267052E0,1.2247449E0,-6.8886423E-1,-9.2005976E-2,-1.6269898E-16,-1.090562E0,-8.2552984E-2,-2.2493838E-1,-3.472093E-2,1.9779285E0,1.6209931E0,-3.6203902E-2,-3.089625E-2,-4.4787936E-3,-2.4497407E-2,-2.1480406E-2,-3.615727E-3,-3.2189477E-2,4.3870364E-3,-2.726618E-2,-1.4030735E-2,-7.0924876E-4,3.0517362E-2,1.1654825E-2,-1.0447599E-2,1.2612016E-2,3.4799628E-2,-2.0923136E-2,-1.00276644E-4,-3.955274E-3,1.0805806E-2,-2.3426035E-2,1.2051763E-2,1.610357E-2,3.2057118E-2,5.761778E-4,2.6411366E-2,3.0118577E-2,4.5948014E-2,3.6257505E-2,5.3701956E-2,4.848736E-2,5.7413712E-2],"split_indices":[50,19,51,12,12,12,12,13,58,14,12,12,13,12,13,12,59,12,74,12,14,58,32,68,58,35,65,9,18,12,12,0,0,0,0,0,0,0,0,0,0,0,0,0,0,0,0,0,0,0,0,0,0,0,0,0,0,0,0,0,0,0,0],"split_type":[0,0,0,0,0,0,0,0,0,0,0,0,0,0,0,0,0,0,0,0,0,0,0,0,0,0,0,0,0,0,0,0,0,0,0,0,0,0,0,0,0,0,0,0,0,0,0,0,0,0,0,0,0,0,0,0,0,0,0,0,0,0,0],"sum_hessian":[8.1572876E3,5.1823867E3,2.974901E3,3.3905083E3,1.7918788E3,9.88618E2,1.986283E3,1.9517526E3,1.4387556E3,9.717051E2,8.2017365E2,4.9102597E2,4.9759198E2,6.097163E2,1.3765667E3,1.8177888E3,1.3396375E2,9.203117E2,5.1844385E2,7.690781E2,2.0262697E2,6.3441864E2,1.8575504E2,1.0132308E2,3.8970288E2,1.5858728E2,3.390047E2,1.9501396E2,4.147023E2,2.69646E2,1.1069207E3,1.1372946E3,6.8049426E2,1.4197508E1,1.19766235E2,6.297646E2,2.9054712E2,4.9740884E2,2.1035017E1,2.1235216E2,5.5672595E2,1.9065352E2,1.1973444E1,4.4131583E2,1.931028E2,5.9583183E1,1.2617185E2,8.859844E1,1.2724641E1,1.9422029E2,1.954826E2,1.3854939E1,1.4473235E2,1.3700273E2,2.0200197E2,7.1347E1,1.2366697E2,2.5267148E2,1.6203082E2,2.1301999E2,5.6626003E1,3.643839E2,7.4253674E2],"tree_param":{"num_deleted":"0","num_feature":"84","num_nodes":"63","size_leaf_vector":"1"}},{"base_weights":[-7.2770608E-3,-6.470307E-1,1.0917194E0,-8.706372E-1,2.8740188E-2,4.5069742E-1,1.5476452E0,-1.0027804E0,-4.911184E-1,-4.9618787E-1,3.0825368E-1,-4.4739872E-2,7.5842303E-1,1.2951047E0,1.8239354E0,-1.1527236E0,-8.2956976E-1,-6.211052E-1,-4.9081493E-2,-1.8086477E-1,-8.918087E-1,1.7060402E-1,1.026503E0,-3.1934264E-1,3.0101153E-1,6.389976E-1,1.3730917E0,8.733737E-1,1.4390719E0,1.5905029E0,5.6418017E-2,-3.525384E-2,-2.73095E-2,-2.0995172E-2,-3.319116E-2,-2.1707484E-2,-9.052433E-3,-4.134225E-3,3.7250146E-2,-1.1039523E-2,9.792468E-3,-2.8513534E-2,1.6615808E-2,-4.1601923E-3,1.4550257E-2,-5.817428E-3,3.455242E-2,-2.1853592E-2,-4.4124834E-3,-3.1203893E-3,2.0277742E-2,2.2243002E-2,-5.519354E-4,1.5939102E-2,4.5807466E-2,9.689365E-3,3.0749658E-2,2.2713026E-2,4.5830633E-2,2.8030198E-2,4.9889844E-2],"categories":[],"categories_nodes":[],"categories_segments":[],"categories_sizes":[],"default_left":[0,0,0,0,0,0,0,0,0,0,0,0,0,0,0,0,0,0,0,0,0,0,0,0,0,0,0,0,0,0,0,0,0,0,0,0,0,0,0,0,0,0,0,0,0,0,0,0,0,0,0,0,0,0,0,0,0,0,0,0,0],"id":11,"left_children":[1,3,5,7,9,11,13,15,17,19,21,23,25,27,29,31,33,35,37,39,41,43,45,47,49,51,53,55,57,59,-1,-1,-1,-1,-1,-1,-1,-1,-1,-1,-1,-1,-1,-1,-1,-1,-1,-1,-1,-1,-1,-1,-1,-1,-1,-1,-1,-1,-1,-1,-1],"loss_changes":[5.6754536E3,7.71062E2,8.665305E2,1.9120654E2,1.866948E2,1.887434E2,1.16160645E2,7.179028E1,5.7027435E1,5.4777496E1,8.167668E1,4.5376675E1,5.418521E1,5.2823242E1,4.736084E0,5.9993896E0,4.5970337E1,2.4645355E1,2.6417406E1,2.3840542E1,1.7647781E1,6.814121E1,2.0834702E1,1.8508188E1,3.230139E1,4.3365967E1,1.4122208E1,1.9098663E1,3.8528687E1,5.038025E0,0E0,0E0,0E0,0E0,0E0,0E0,0E0,0E0,0E0,0E0,0E0,0E0,0E0,0E0,0E0,0E0,0E0,0E0,0E0,0E0,0E0,0E0,0E0,0E0,0E0,0E0,0E0,0E0,0E0,0E0,0E0],"parents":[2147483647,0,0,1,1,2,2,3,3,4,4,5,5,6,6,7,7,8,8,9,9,10,10,11,11,12,12,13,13,14,14,15,15,16,16,17,17,18,18,19,19,20,20,21,21,22,22,23,23,24,24,25,25,26,26,27,27,28,28,29,29],"right_children":[2,4,6,8,10,12,14,16,18,20,22,24,26,28,30,32,34,36,38,40,42,44,46,48,50,52,54,56,58,60,-1,-1,-1,-1,-1,-1,-1,-1,-1,-1,-1,-1,-1,-1,-1,-1,-1,-1,-1,-1,-1,-1,-1,-1,-1,-1,-1,-1,-1,-1,-1],"split_conditions":[1.4343779E0,3.195311E-1,-8.252427E-2,-9.791032E-2,-9.791032E-2,2.0574915E-1,1.4051594E0,-7.4430764E-1,-6.933623E-2,1.2247449E0,-3.4168117E-2,5.1223546E-1,1.3728144E0,-7.838564E-2,-6.5543085E-2,-1.02733225E-1,1.2247449E0,-1.02733225E-1,1.267052E0,8.438402E-1,1.3728144E0,-1.02733225E-1,-1.031513E0,-6.7765754E-1,-1.6269898E-16,1.2247449E0,-8.609118E-2,-2.4068932E-1,-7.7714515E-1,-9.1482095E-2,5.6418017E-2,-3.525384E-2,-2.73095E-2,-2.0995172E-2,-3.319116E-2,-2.1707484E-2,-9.052433E-3,-4.134225E-3,3.7250146E-2,-1.1039523E-2,9.792468E-3,-2.8513534E-2,1.6615808E-2,-4.1601923E-3,1.4550257E-2,-5.817428E-3,3.455242E-2,-2.1853592E-2,-4.4124834E-3,-3.1203893E-3,2.0277742E-2,2.2243002E-2,-5.519354E-4,1.5939102E-2,4.5807466E-2,9.689365E-3,3.0749658E-2,2.2713026E-2,4.5830633E-2,2.8030198E-2,4.9889844E-2],"split_indices":[50,11,14,14,14,11,11,11,14,58,14,9,11,18,18,13,58,13,14,11,11,13,35,11,58,58,18,23,9,22,0,0,0,0,0,0,0,0,0,0,0,0,0,0,0,0,0,0,0,0,0,0,0,0,0,0,0,0,0,0,0],"split_type":[0,0,0,0,0,0,0,0,0,0,0,0,0,0,0,0,0,0,0,0,0,0,0,0,0,0,0,0,0,0,0,0,0,0,0,0,0,0,0,0,0,0,0,0,0,0,0,0,0,0,0,0,0,0,0,0,0,0,0,0,0],"sum_hessian":[8.068215E3,5.100154E3,2.9680608E3,3.8317573E3,1.2683966E3,1.2353176E3,1.7327432E3,2.839623E3,9.921343E2,4.4011975E2,8.2827686E2,4.7389493E2,7.614227E2,9.1131744E2,8.2142566E2,1.5158232E3,1.3237998E3,7.6596796E2,2.2616632E2,2.4660666E2,1.9351309E2,6.9720496E2,1.3107193E2,2.642888E2,2.0960614E2,6.4103503E2,1.20387665E2,2.3561055E2,6.757069E2,1.7197865E2,6.49447E2,1.3803429E3,1.3548044E2,9.062833E2,4.1751648E2,5.77854E2,1.8811395E2,2.1332747E2,1.2838863E1,1.8062697E2,6.5979706E1,1.8666103E2,6.852072E0,3.5195178E2,3.4525317E2,1.2060007E1,1.1901192E2,7.63093E1,1.8797949E2,1.0138747E2,1.08218666E2,5.544592E2,8.657581E1,2.0026625E1,1.0036104E2,5.230878E1,1.8330176E2,7.996476E1,5.957421E2,1.9941883E1,1.5203677E2],"tree_param":{"num_deleted":"0","num_feature":"84","num_nodes":"61","size_leaf_vector":"1"}},{"base_weights":[-2.7016257E-3,-6.2651527E-1,1.0497619E0,-8.8321555E-1,-3.5300657E-2,3.8639414E-1,1.4989374E0,-1.0081358E0,-4.8859727E-1,-7.1469855E-1,1.9026773E-1,-1.6602658E-1,6.7549324E-1,1.1416018E0,1.7177798E0,-1.1463362E0,-8.554905E-1,-6.184213E-1,5.5455803E-3,-8.478275E-1,6.428927E-2,1.4291673E-2,7.8550535E-1,-6.035626E-1,-2.4933446E-2,3.5994872E-1,8.915807E-1,6.245067E-1,1.2989501E0,1.4063134E0,1.7731948E0,-3.6421776E-2,-3.1385634E-2,-3.380566E-2,-2.3386652E-2,-2.5408302E-2,-1.3040763E-2,-2.600503E-2,2.5289736E-3,-3.092278E-2,-1.1814755E-2,2.1883957E-2,-8.971093E-3,-6.5128636E-3,1.2011973E-2,-0E0,2.8105436E-2,-2.034007E-2,2.1879058E-3,-8.297326E-3,6.498883E-3,1.3830856E-2,-6.4534023E-3,1.9288586E-2,3.457056E-2,2.269082E-3,2.54434E-2,2.6714811E-2,4.297884E-2,1.5872203E-2,4.397421E-2,4.5379844E-2,5.4644838E-2],"categories":[],"categories_nodes":[],"categories_segments":[],"categories_sizes":[],"default_left":[0,0,0,0,0,0,0,0,0,0,0,0,0,0,0,0,0,0,0,0,0,0,0,0,0,0,0,0,0,0,0,0,0,0,0,0,0,0,0,0,0,0,0,0,0,0,0,0,0,0,0,0,0,0,0,0,0,0,0,0,0,0,0],"id":12,"left_children":[1,3,5,7,9,11,13,15,17,19,21,23,25,27,29,31,33,35,37,39,41,43,45,47,49,51,53,55,57,59,61,-1,-1,-1,-1,-1,-1,-1,-1,-1,-1,-1,-1,-1,-1,-1,-1,-1,-1,-1,-1,-1,-1,-1,-1,-1,-1,-1,-1,-1,-1,-1,-1],"loss_changes":[5.2961245E3,7.6854895E2,8.932329E2,1.7301929E2,2.356102E2,1.9424875E2,1.3585156E2,5.447998E1,5.476297E1,3.9888397E1,1.2084451E2,2.5796227E1,5.3698883E1,5.4066406E1,1.3936035E1,6.8464355E0,2.4557251E1,2.756842E1,1.2431832E1,2.6313461E1,1.4410869E1,7.996297E1,3.1342667E1,5.26379E0,1.9508028E1,1.926202E1,2.9038483E1,1.9938976E1,2.5929321E1,7.5761414E0,6.0354004E0,0E0,0E0,0E0,0E0,0E0,0E0,0E0,0E0,0E0,0E0,0E0,0E0,0E0,0E0,0E0,0E0,0E0,0E0,0E0,0E0,0E0,0E0,0E0,0E0,0E0,0E0,0E0,0E0,0E0,0E0,0E0,0E0],"parents":[2147483647,0,0,1,1,2,2,3,3,4,4,5,5,6,6,7,7,8,8,9,9,10,10,11,11,12,12,13,13,14,14,15,15,16,16,17,17,18,18,19,19,20,20,21,21,22,22,23,23,24,24,25,25,26,26,27,27,28,28,29,29,30,30],"right_children":[2,4,6,8,10,12,14,16,18,20,22,24,26,28,30,32,34,36,38,40,42,44,46,48,50,52,54,56,58,60,62,-1,-1,-1,-1,-1,-1,-1,-1,-1,-1,-1,-1,-1,-1,-1,-1,-1,-1,-1,-1,-1,-1,-1,-1,-1,-1,-1,-1,-1,-1,-1,-1],"split_conditions":[1.4343779E0,-1.9472145E-1,-8.322163E-2,-9.6982375E-2,-1.0890845E0,-1.8230629E-1,1.1088686E0,-8.132561E-1,-6.933623E-2,1.008365E0,8.1020236E-1,-7.2587365E-1,-9.791032E-2,-4.0054265E-1,-7.563452E-2,-9.7201735E-1,-1.0007583E0,-6.78912E-1,-1.1749701E0,-2.6424554E-1,-8.710627E-1,1.5738916E-1,-2.624456E-1,1.2284461E0,-1.6269898E-16,1.2247449E0,7.202206E-1,-8.5176066E-2,-1.3624509E-1,-9.989571E-1,-6.487397E-2,-3.6421776E-2,-3.1385634E-2,-3.380566E-2,-2.3386652E-2,-2.5408302E-2,-1.3040763E-2,-2.600503E-2,2.5289736E-3,-3.092278E-2,-1.1814755E-2,2.1883957E-2,-8.971093E-3,-6.5128636E-3,1.2011973E-2,-0E0,2.8105436E-2,-2.034007E-2,2.1879058E-3,-8.297326E-3,6.498883E-3,1.3830856E-2,-6.4534023E-3,1.9288586E-2,3.457056E-2,2.269082E-3,2.54434E-2,2.6714811E-2,4.297884E-2,1.5872203E-2,4.397421E-2,4.5379844E-2,5.4644838E-2],"split_indices":[50,12,19,19,32,12,12,11,14,12,12,12,14,9,13,12,34,12,11,42,10,35,43,9,58,58,12,12,33,35,19,0,0,0,0,0,0,0,0,0,0,0,0,0,0,0,0,0,0,0,0,0,0,0,0,0,0,0,0,0,0,0,0],"split_type":[0,0,0,0,0,0,0,0,0,0,0,0,0,0,0,0,0,0,0,0,0,0,0,0,0,0,0,0,0,0,0,0,0,0,0,0,0,0,0,0,0,0,0,0,0,0,0,0,0,0,0,0,0,0,0,0,0,0,0,0,0,0,0],"sum_hessian":[8.062735E3,5.062788E3,2.9999468E3,3.5293171E3,1.5334711E3,1.212738E3,1.7872087E3,2.6782534E3,8.510637E2,3.812013E2,1.1522698E3,4.16862E2,7.9587604E2,6.8362195E2,1.1035868E3,1.3986298E3,1.2796238E3,6.736711E2,1.7739258E2,3.2546655E2,5.573474E1,8.909896E2,2.6128015E2,9.996286E1,3.1689914E2,3.2575333E2,4.7012274E2,1.6188232E2,5.217396E2,1.7479443E2,9.2879236E2,8.2082275E2,5.7780695E2,2.7358725E2,1.00603656E3,2.9689813E2,3.7677298E2,1.297834E1,1.6441425E2,2.3010077E2,9.536578E1,1.9025331E1,3.670941E1,5.57585E2,3.3340454E2,4.24815E1,2.1879866E2,9.011613E1,9.846731E0,1.5517023E2,1.617289E2,2.774661E2,4.8287235E1,2.4431128E2,2.2581145E2,4.7699078E1,1.1418324E2,1.3251964E2,3.8922E2,1.2411515E1,1.6238292E2,1.5552876E2,7.732636E2],"tree_param":{"num_deleted":"0","num_feature":"84","num_nodes":"63","size_leaf_vector":"1"}},{"base_weights":[-0E0,-5.884638E-1,1.0399878E0,-8.577443E-1,3.8468707E-2,3.6158618E-1,1.4450728E0,-9.367392E-1,-2.0189312E-1,-4.8929417E-1,3.2400498E-1,-1.8106723E-1,6.6372466E-1,9.974165E-1,1.6228276E0,-1.1104773E0,-7.8163767E-1,-5.328252E-1,1.7648576E-2,-2.0285779E-1,-8.802826E-1,1.7734456E-1,8.908944E-1,-6.5654266E-1,1.4164804E-2,8.856504E-1,3.4965545E-1,5.212455E-1,1.1866038E0,1.4116505E0,1.7504516E0,-3.3718105E-2,-1.5400003E-2,-1.9905042E-2,-3.226512E-2,-2.145886E-2,-7.324233E-3,-2.362183E-2,4.429778E-3,-1.2299083E-2,2.059532E-3,-2.7913842E-2,1.8956635E-2,1.9287613E-3,2.4635285E-2,1.3260819E-2,3.520358E-2,-6.185714E-3,-2.3187663E-2,2.29987E-2,-3.3524267E-3,-5.590259E-3,2.8414736E-2,7.0263054E-3,2.6167292E-2,3.9495095E-3,2.2717437E-2,2.6747761E-2,4.3560773E-2,5.01869E-3,4.3241106E-2,2.804868E-2,5.2718427E-2],"categories":[],"categories_nodes":[],"categories_segments":[],"categories_sizes":[],"default_left":[0,0,0,0,0,0,0,0,0,0,0,0,0,0,0,0,0,0,0,0,0,0,0,0,0,0,0,0,0,0,0,0,0,0,0,0,0,0,0,0,0,0,0,0,0,0,0,0,0,0,0,0,0,0,0,0,0,0,0,0,0,0,0],"id":13,"left_children":[1,3,5,7,9,11,13,15,17,19,21,23,25,27,29,31,33,35,37,39,41,43,45,47,49,51,53,55,57,59,61,-1,-1,-1,-1,-1,-1,-1,-1,-1,-1,-1,-1,-1,-1,-1,-1,-1,-1,-1,-1,-1,-1,-1,-1,-1,-1,-1,-1,-1,-1,-1,-1],"loss_changes":[4.901682E3,8.636421E2,7.9424097E2,1.8495459E2,2.3219397E2,1.781247E2,1.4077661E2,8.421265E1,2.8182037E1,6.017389E1,8.275381E1,3.620627E1,4.792154E1,4.553357E1,2.9757324E1,1.0829346E1,5.7292236E1,7.747177E0,2.4762196E1,1.778128E1,1.8496353E1,5.7851616E1,2.4872986E1,5.5805664E0,2.654274E1,2.7239655E1,1.7159538E1,1.3689091E1,2.6312073E1,1.7842224E1,1.0219727E0,0E0,0E0,0E0,0E0,0E0,0E0,0E0,0E0,0E0,0E0,0E0,0E0,0E0,0E0,0E0,0E0,0E0,0E0,0E0,0E0,0E0,0E0,0E0,0E0,0E0,0E0,0E0,0E0,0E0,0E0,0E0,0E0],"parents":[2147483647,0,0,1,1,2,2,3,3,4,4,5,5,6,6,7,7,8,8,9,9,10,10,11,11,12,12,13,13,14,14,15,15,16,16,17,17,18,18,19,19,20,20,21,21,22,22,23,23,24,24,25,25,26,26,27,27,28,28,29,29,30,30],"right_children":[2,4,6,8,10,12,14,16,18,20,22,24,26,28,30,32,34,36,38,40,42,44,46,48,50,52,54,56,58,60,62,-1,-1,-1,-1,-1,-1,-1,-1,-1,-1,-1,-1,-1,-1,-1,-1,-1,-1,-1,-1,-1,-1,-1,-1,-1,-1,-1,-1,-1,-1,-1,-1],"split_conditions":[-9.122821E-2,1.9196811E-1,-8.551509E-2,-8.6920284E-2,-9.791032E-2,-2.0281827E-1,7.202206E-1,-8.132561E-1,-1.8084465E-1,1.2247449E0,1.1088686E0,-7.1759E-1,-2.7420935E-1,-2.6454487E-1,1.6619067E0,-9.636523E-2,1.2247449E0,-3.3607554E-1,-1.0586095E0,3.0631825E-1,1.3728144E0,-3.5059035E-2,-6.6262984E-1,-1.07125014E-1,-1.2247449E0,-1.2128792E0,8.3223987E-1,-8.5176066E-2,-5.270052E-2,-1.2308296E0,-1.2514466E0,-3.3718105E-2,-1.5400003E-2,-1.9905042E-2,-3.226512E-2,-2.145886E-2,-7.324233E-3,-2.362183E-2,4.429778E-3,-1.2299083E-2,2.059532E-3,-2.7913842E-2,1.8956635E-2,1.9287613E-3,2.4635285E-2,1.3260819E-2,3.520358E-2,-6.185714E-3,-2.3187663E-2,2.29987E-2,-3.3524267E-3,-5.590259E-3,2.8414736E-2,7.0263054E-3,2.6167292E-2,3.9495095E-3,2.2717437E-2,2.6747761E-2,4.3560773E-2,5.01869E-3,4.3241106E-2,2.804868E-2,5.2718427E-2],"split_indices":[18,11,19,14,14,12,12,11,25,58,12,12,10,9,12,18,58,11,34,12,11,19,35,10,59,34,12,12,18,31,34,0,0,0,0,0,0,0,0,0,0,0,0,0,0,0,0,0,0,0,0,0,0,0,0,0,0,0,0,0,0,0,0],"split_type":[0,0,0,0,0,0,0,0,0,0,0,0,0,0,0,0,0,0,0,0,0,0,0,0,0,0,0,0,0,0,0,0,0,0,0,0,0,0,0,0,0,0,0,0,0,0,0,0,0,0,0,0,0,0,0,0,0,0,0,0,0,0,0],"sum_hessian":[8.0053784E3,5.113103E3,2.8922754E3,3.5763357E3,1.536767E3,1.0828011E3,1.8094744E3,3.191052E3,3.852837E2,5.389717E2,9.9779535E2,3.8748953E2,6.953116E2,5.1812823E2,1.2913461E3,1.4991389E3,1.6919131E3,1.5261267E2,2.3267102E2,3.1290463E2,2.2606703E2,7.948682E2,2.0292712E2,1.1149085E2,2.759987E2,4.051956E2,2.9011603E2,1.4953468E2,3.6859357E2,4.9567526E2,7.956708E2,1.4642859E3,3.485307E1,1.2115481E3,4.8036496E2,9.159127E1,6.10214E1,3.0891226E1,2.0177979E2,1.7702847E2,1.3587616E2,2.1958296E2,6.484063E0,6.780794E2,1.1678882E2,8.0442825E1,1.2248429E2,2.412145E1,8.73694E1,3.8161808E1,2.3783687E2,2.1722883E1,3.8347272E2,2.4007326E2,5.0042763E1,5.7666233E1,9.1868454E1,1.787845E2,1.8980907E2,1.1910785E1,4.837645E2,8.95927E0,7.867115E2],"tree_param":{"num_deleted":"0","num_feature":"84","num_nodes":"63","size_leaf_vector":"1"}},{"base_weights":[6.53227E-4,-5.99972E-1,9.9470896E-1,-8.5052127E-1,-7.843208E-3,4.257516E-1,1.433223E0,-9.7066844E-1,-4.8816165E-1,-4.817798E-1,2.6345244E-1,3.6351543E-3,7.672572E-1,7.714047E-1,1.5543865E0,-1.1140658E0,-7.942593E-1,-6.285401E-1,-2.4242988E-2,-6.4362186E-1,-3.2919206E-2,-1.4566441E-1,4.6251813E-1,-3.6335483E-1,2.0814459E-1,3.751085E-1,9.374181E-1,1.0494286E0,4.8761266E-1,1.3592995E0,1.7129775E0,-3.4126397E-2,-2.5540756E-2,-3.3126842E-2,-2.0580914E-2,-2.2658506E-2,-1.2120537E-2,-3.2903757E-3,4.296165E-2,-2.5342619E-2,-5.3191474E-3,-9.524358E-3,1.3337303E-2,-8.19036E-3,1.8288577E-2,5.850234E-3,2.4947029E-2,-1.2641605E-2,2.174008E-2,6.35338E-4,1.592036E-2,-1.981494E-2,1.4358344E-2,1.950886E-2,3.6607258E-2,4.014596E-2,1.9947318E-2,-2.4637436E-2,1.7178843E-2,2.998424E-2,4.433539E-2,3.747016E-2,5.1929507E-2],"categories":[],"categories_nodes":[],"categories_segments":[],"categories_sizes":[],"default_left":[0,0,0,0,0,0,0,0,0,0,0,0,0,0,0,0,0,0,0,0,0,0,0,0,0,0,0,0,0,0,0,0,0,0,0,0,0,0,0,0,0,0,0,0,0,0,0,0,0,0,0,0,0,0,0,0,0,0,0,0,0,0,0],"id":14,"left_children":[1,3,5,7,9,11,13,15,17,19,21,23,25,27,29,31,33,35,37,39,41,43,45,47,49,51,53,55,57,59,61,-1,-1,-1,-1,-1,-1,-1,-1,-1,-1,-1,-1,-1,-1,-1,-1,-1,-1,-1,-1,-1,-1,-1,-1,-1,-1,-1,-1,-1,-1,-1,-1],"loss_changes":[4.760524E3,7.373082E2,7.4795264E2,1.5102393E2,1.90538E2,1.8880481E2,1.3341138E2,6.442749E1,5.683873E1,3.9115334E1,7.689597E1,4.427074E1,4.7548553E1,1.9914352E1,3.945508E1,6.849121E0,3.8054382E1,1.841507E1,2.5770891E1,3.6822205E1,1.9999918E1,3.0121302E1,6.2261444E1,1.3920462E1,2.2799492E1,2.447693E1,3.9210297E1,1.28564E1,1.6019936E1,2.4707275E1,2.0546875E0,0E0,0E0,0E0,0E0,0E0,0E0,0E0,0E0,0E0,0E0,0E0,0E0,0E0,0E0,0E0,0E0,0E0,0E0,0E0,0E0,0E0,0E0,0E0,0E0,0E0,0E0,0E0,0E0,0E0,0E0,0E0,0E0],"parents":[2147483647,0,0,1,1,2,2,3,3,4,4,5,5,6,6,7,7,8,8,9,9,10,10,11,11,12,12,13,13,14,14,15,15,16,16,17,17,18,18,19,19,20,20,21,21,22,22,23,23,24,24,25,25,26,26,27,27,28,28,29,29,30,30],"right_children":[2,4,6,8,10,12,14,16,18,20,22,24,26,28,30,32,34,36,38,40,42,44,46,48,50,52,54,56,58,60,62,-1,-1,-1,-1,-1,-1,-1,-1,-1,-1,-1,-1,-1,-1,-1,-1,-1,-1,-1,-1,-1,-1,-1,-1,-1,-1,-1,-1,-1,-1,-1,-1],"split_conditions":[1.4343779E0,1.6703098E-1,-8.032627E-2,-9.791032E-2,-9.791032E-2,1.3782702E-1,3.2163563E-1,-7.4430764E-1,-6.933623E-2,-3.6938903E-3,-2.794281E-1,-4.9682325E-1,-8.3025075E-2,-2.5682062E-1,1.6619067E0,-1.02733225E-1,-9.1266257E-1,-9.338207E-2,1.8802961E0,1.2247449E0,3.4844106E-1,-2.3178082E-2,5.954856E-1,1.6817961E0,6.746958E-1,-1.2225211E0,8.1020236E-1,-7.0710677E-1,-7.7902126E-1,-7.581713E-2,-9.712037E-1,-3.4126397E-2,-2.5540756E-2,-3.3126842E-2,-2.0580914E-2,-2.2658506E-2,-1.2120537E-2,-3.2903757E-3,4.296165E-2,-2.5342619E-2,-5.3191474E-3,-9.524358E-3,1.3337303E-2,-8.19036E-3,1.8288577E-2,5.850234E-3,2.4947029E-2,-1.2641605E-2,2.174008E-2,6.35338E-4,1.592036E-2,-1.981494E-2,1.4358344E-2,1.950886E-2,3.6607258E-2,4.014596E-2,1.9947318E-2,-2.4637436E-2,1.7178843E-2,2.998424E-2,4.433539E-2,3.747016E-2,5.1929507E-2],"split_indices":[50,11,14,14,14,12,12,11,14,35,42,12,13,10,12,13,35,64,14,59,12,14,12,29,9,34,12,59,11,18,31,0,0,0,0,0,0,0,0,0,0,0,0,0,0,0,0,0,0,0,0,0,0,0,0,0,0,0,0,0,0,0,0],"split_type":[0,0,0,0,0,0,0,0,0,0,0,0,0,0,0,0,0,0,0,0,0,0,0,0,0,0,0,0,0,0,0,0,0,0,0,0,0,0,0,0,0,0,0,0,0,0,0,0,0,0,0,0,0,0,0,0,0,0,0,0,0,0,0],"sum_hessian":[7.96931E3,4.968189E3,3.001121E3,3.4903496E3,1.4778395E3,1.3080396E3,1.6930817E3,2.6186062E3,8.717434E2,5.374975E2,9.4034204E2,5.8594836E2,7.220911E2,2.6434177E2,1.4287399E3,1.4384343E3,1.1801719E3,6.686095E2,2.031339E2,3.9433582E2,1.4316168E2,3.07879E2,6.32463E2,2.0903656E2,3.769118E2,2.2054083E2,5.015503E2,1.3071329E2,1.3362848E2,6.493791E2,7.793608E2,1.3141268E3,1.2430744E2,3.0054376E2,8.796281E2,4.2419778E2,2.4441171E2,1.9365642E2,9.477479E0,2.7429596E2,1.2003984E2,9.0189186E1,5.297249E1,2.6460712E2,4.3271877E1,3.6852515E2,2.639379E2,1.9965872E2,9.377843E0,2.400474E2,1.3686441E2,1.9017168E1,2.0152365E2,2.5224573E2,2.4930458E2,7.1743805E1,5.8969486E1,7.0580277E0,1.2657044E2,1.6570348E2,4.836756E2,3.4477196E1,7.448836E2],"tree_param":{"num_deleted":"0","num_feature":"84","num_nodes":"63","size_leaf_vector":"1"}},{"base_weights":[4.1314266E-5,-5.8709735E-1,9.646091E-1,-8.304408E-1,4.7772448E-3,4.1184247E-1,1.3907096E0,-9.027469E-1,-1.275877E-1,-5.956837E-1,1.9637862E-1,-6.982369E-2,7.050977E-1,1.0749644E0,1.6191317E0,-1.0560338E0,-7.166663E-1,-2.2422658E-1,8.741034E-1,-2.7968293E-1,-9.7404695E-1,1.9376762E-2,6.3952285E-1,-3.5046375E-1,1.3058734E-1,2.9628268E-1,8.7919205E-1,7.911142E-1,1.2950681E0,1.2006518E0,1.6505079E0,-3.2653626E-2,-2.4608778E-2,-1.5952114E-2,-2.7851447E-2,-1.960526E-2,-2.9921394E-3,7.331791E-3,5.0976146E-2,-1.2695135E-2,5.978007E-3,-3.1318102E-2,1.4553814E-3,-6.214271E-3,1.4133897E-2,1.067134E-2,2.8474592E-2,-1.2291868E-2,2.5783863E-2,-2.1686167E-3,1.0588817E-2,-9.453938E-3,1.2629835E-2,1.6676834E-2,3.0748984E-2,7.2328574E-3,2.8099323E-2,2.3281684E-2,4.2983532E-2,1.0499324E-2,3.9445493E-2,3.261934E-2,4.997909E-2],"categories":[],"categories_nodes":[],"categories_segments":[],"categories_sizes":[],"default_left":[0,0,0,0,0,0,0,0,0,0,0,0,0,0,0,0,0,0,0,0,0,0,0,0,0,0,0,0,0,0,0,0,0,0,0,0,0,0,0,0,0,0,0,0,0,0,0,0,0,0,0,0,0,0,0,0,0,0,0,0,0,0,0],"id":15,"left_children":[1,3,5,7,9,11,13,15,17,19,21,23,25,27,29,31,33,35,37,39,41,43,45,47,49,51,53,55,57,59,61,-1,-1,-1,-1,-1,-1,-1,-1,-1,-1,-1,-1,-1,-1,-1,-1,-1,-1,-1,-1,-1,-1,-1,-1,-1,-1,-1,-1,-1,-1,-1,-1],"loss_changes":[4.4855503E3,7.091537E2,7.0464307E2,1.7703052E2,1.6546631E2,1.8480963E2,1.1837866E2,8.862256E1,3.2095467E1,4.0987457E1,8.547597E1,2.8029495E1,5.7277374E1,4.258368E1,8.727783E0,1.1341187E1,5.5127686E1,1.5898096E1,1.4248404E1,1.3405433E1,1.1403152E1,8.01668E1,2.6597816E1,1.5561615E1,1.3194469E1,1.9019995E1,2.5598633E1,2.4942108E1,2.6262085E1,6.3426285E0,4.109619E0,0E0,0E0,0E0,0E0,0E0,0E0,0E0,0E0,0E0,0E0,0E0,0E0,0E0,0E0,0E0,0E0,0E0,0E0,0E0,0E0,0E0,0E0,0E0,0E0,0E0,0E0,0E0,0E0,0E0,0E0,0E0,0E0],"parents":[2147483647,0,0,1,1,2,2,3,3,4,4,5,5,6,6,7,7,8,8,9,9,10,10,11,11,12,12,13,13,14,14,15,15,16,16,17,17,18,18,19,19,20,20,21,21,22,22,23,23,24,24,25,25,26,26,27,27,28,28,29,29,30,30],"right_children":[2,4,6,8,10,12,14,16,18,20,22,24,26,28,30,32,34,36,38,40,42,44,46,48,50,52,54,56,58,60,62,-1,-1,-1,-1,-1,-1,-1,-1,-1,-1,-1,-1,-1,-1,-1,-1,-1,-1,-1,-1,-1,-1,-1,-1,-1,-1,-1,-1,-1,-1,-1,-1],"split_conditions":[1.4343779E0,1.9196811E-1,-8.032627E-2,-8.322163E-2,-2.7254328E-1,-5.3640272E-2,1.2751428E0,-7.62953E-1,4.649146E-1,1.2247449E0,6.4027035E-1,-4.9682325E-1,-8.2542226E-2,-6.0406055E-2,-7.373224E-2,-9.791032E-2,7.0710677E-1,-7.030037E-1,-3.53861E-1,5.3409344E-1,1E0,9.774876E-1,3.7524647E-1,1E0,-7.324862E-2,-8.86597E-2,-8.3025075E-2,-9.86042E-2,-3.7572682E-1,-8.795211E-2,-9.7638774E-1,-3.2653626E-2,-2.4608778E-2,-1.5952114E-2,-2.7851447E-2,-1.960526E-2,-2.9921394E-3,7.331791E-3,5.0976146E-2,-1.2695135E-2,5.978007E-3,-3.1318102E-2,1.4553814E-3,-6.214271E-3,1.4133897E-2,1.067134E-2,2.8474592E-2,-1.2291868E-2,2.5783863E-2,-2.1686167E-3,1.0588817E-2,-9.453938E-3,1.2629835E-2,1.6676834E-2,3.0748984E-2,7.2328574E-3,2.8099323E-2,2.3281684E-2,4.2983532E-2,1.0499324E-2,3.9445493E-2,3.261934E-2,4.997909E-2],"split_indices":[50,11,14,19,43,12,12,12,19,58,32,12,65,18,14,14,58,32,12,12,74,11,12,80,18,18,13,12,9,13,35,0,0,0,0,0,0,0,0,0,0,0,0,0,0,0,0,0,0,0,0,0,0,0,0,0,0,0,0,0,0,0,0],"split_type":[0,0,0,0,0,0,0,0,0,0,0,0,0,0,0,0,0,0,0,0,0,0,0,0,0,0,0,0,0,0,0,0,0,0,0,0,0,0,0,0,0,0,0,0,0,0,0,0,0,0,0,0,0,0,0,0,0,0,0,0,0,0,0],"sum_hessian":[7.916279E3,4.921351E3,2.9949275E3,3.4869883E3,1.4343629E3,1.3054541E3,1.6894735E3,3.161145E3,3.258431E2,3.4589166E2,1.0884713E3,4.9453806E2,8.10916E2,7.140631E2,9.7541034E2,1.7280321E3,1.433113E3,2.9863437E2,2.7208744E1,1.904459E2,1.5544576E2,7.793725E2,3.0909875E2,2.0550993E2,2.8902814E2,2.438915E2,5.6702454E2,3.15982E2,3.9808115E2,7.362062E1,9.0178973E2,1.5125695E3,2.1546265E2,7.6882184E2,6.642912E2,6.5132614E1,2.3350174E2,1.6936186E1,1.0272559E1,1.468027E2,4.3643204E1,1.4550769E2,9.938061E0,5.19737E2,2.5963553E2,1.6359987E2,1.4549889E2,1.9721394E2,8.295985E0,1.517287E2,1.3729944E2,4.0733955E1,2.0315753E2,1.7931339E2,3.8771115E2,6.729663E1,2.4868536E2,8.6336784E1,3.1174435E2,9.727387E0,6.389323E1,2.7993769E1,8.7379596E2],"tree_param":{"num_deleted":"0","num_feature":"84","num_nodes":"63","size_leaf_vector":"1"}},{"base_weights":[-6.955365E-3,-5.7512075E-1,9.279691E-1,-8.164003E-1,-2.8673897E-3,3.4236497E-1,1.3267443E0,-1.0458477E0,-6.1689603E-1,-6.1503893E-1,1.9703817E-1,-1.7203717E-1,5.5536115E-1,9.650296E-1,1.534534E0,-1.0544415E0,1.0498435E-1,-7.0478743E-1,-3.636292E-2,-3.2313403E-1,-9.5652866E-1,-8.086344E-2,5.0687927E-1,-4.4655257E-1,9.259319E-2,1.686509E-1,7.0933527E-1,4.531258E-1,1.1258987E0,1.3867909E0,5.009677E-2,-3.312319E-2,-2.6686251E-2,1.4066197E-2,-9.123511E-3,-1.7729081E-2,-2.9948384E-2,9.263095E-3,-9.595435E-3,-1.4124648E-2,4.821727E-3,-3.147711E-2,5.6483373E-3,-7.679849E-3,9.861851E-3,1.1116872E-2,3.2583952E-2,-2.1947095E-2,-5.131564E-3,3.4562737E-2,-1.2748361E-3,1.071587E-2,-3.921911E-3,1.0017318E-2,2.6751664E-2,-6.8365843E-3,1.8621165E-2,2.064764E-2,3.844268E-2,4.4413462E-2,2.5356306E-2],"categories":[],"categories_nodes":[],"categories_segments":[],"categories_sizes":[],"default_left":[0,0,0,0,0,0,0,0,0,0,0,0,0,0,0,0,0,0,0,0,0,0,0,0,0,0,0,0,0,0,0,0,0,0,0,0,0,0,0,0,0,0,0,0,0,0,0,0,0,0,0,0,0,0,0,0,0,0,0,0,0],"id":16,"left_children":[1,3,5,7,9,11,13,15,17,19,21,23,25,27,29,31,33,35,37,39,41,43,45,47,49,51,53,55,57,59,-1,-1,-1,-1,-1,-1,-1,-1,-1,-1,-1,-1,-1,-1,-1,-1,-1,-1,-1,-1,-1,-1,-1,-1,-1,-1,-1,-1,-1,-1,-1],"loss_changes":[4.1729907E3,6.746376E2,6.924595E2,1.5596338E2,1.7786777E2,1.323138E2,1.2963208E2,1.604956E1,9.397534E1,3.4984833E1,9.443078E1,2.585387E1,5.0518646E1,5.2407104E1,1.7574463E1,1.0908569E1,2.3184247E0,5.2219177E1,2.412864E1,1.4173527E1,1.7822601E1,4.170854E1,4.005124E1,1.340218E1,2.621207E1,1.3972832E1,4.1077637E1,1.8423683E1,3.1690735E1,2.510376E1,0E0,0E0,0E0,0E0,0E0,0E0,0E0,0E0,0E0,0E0,0E0,0E0,0E0,0E0,0E0,0E0,0E0,0E0,0E0,0E0,0E0,0E0,0E0,0E0,0E0,0E0,0E0,0E0,0E0,0E0,0E0],"parents":[2147483647,0,0,1,1,2,2,3,3,4,4,5,5,6,6,7,7,8,8,9,9,10,10,11,11,12,12,13,13,14,14,15,15,16,16,17,17,18,18,19,19,20,20,21,21,22,22,23,23,24,24,25,25,26,26,27,27,28,28,29,29],"right_children":[2,4,6,8,10,12,14,16,18,20,22,24,26,28,30,32,34,36,38,40,42,44,46,48,50,52,54,56,58,60,-1,-1,-1,-1,-1,-1,-1,-1,-1,-1,-1,-1,-1,-1,-1,-1,-1,-1,-1,-1,-1,-1,-1,-1,-1,-1,-1,-1,-1,-1,-1],"split_conditions":[1.4343779E0,1.9196811E-1,-8.322163E-2,-8.2257295E-1,-8.269287E-2,-2.797382E-1,1.008365E0,1.9983934E-2,-8.032627E-2,1.2247449E0,-1.02733225E-1,-1.6269898E-16,-9.927583E-2,-3.3304814E-1,2.0621302E0,-8.2684256E-2,-4.371034E-1,1.2247449E0,-3.2929975E-1,5.3409344E-1,1E0,2.8592604E-1,-5.340669E-2,-4.4181857E-1,-1.4883993E0,-1.0335327E-1,-8.3025075E-2,-3.216945E-1,-7.838564E-2,1.2247449E0,5.009677E-2,-3.312319E-2,-2.6686251E-2,1.4066197E-2,-9.123511E-3,-1.7729081E-2,-2.9948384E-2,9.263095E-3,-9.595435E-3,-1.4124648E-2,4.821727E-3,-3.147711E-2,5.6483373E-3,-7.679849E-3,9.861851E-3,1.1116872E-2,3.2583952E-2,-2.1947095E-2,-5.131564E-3,3.4562737E-2,-1.2748361E-3,1.071587E-2,-3.921911E-3,1.0017318E-2,2.6751664E-2,-6.8365843E-3,1.8621165E-2,2.064764E-2,3.844268E-2,4.4413462E-2,2.5356306E-2],"split_indices":[50,11,19,12,65,12,12,19,14,58,13,58,19,9,12,65,29,58,29,12,74,27,19,11,10,10,13,12,18,58,0,0,0,0,0,0,0,0,0,0,0,0,0,0,0,0,0,0,0,0,0,0,0,0,0,0,0,0,0,0,0],"split_type":[0,0,0,0,0,0,0,0,0,0,0,0,0,0,0,0,0,0,0,0,0,0,0,0,0,0,0,0,0,0,0,0,0,0,0,0,0,0,0,0,0,0,0,0,0,0,0,0,0,0,0,0,0,0,0,0,0,0,0,0,0],"sum_hessian":[7.8519272E3,4.884424E3,2.9675032E3,3.4351284E3,1.4492957E3,1.2037015E3,1.7638015E3,1.5936063E3,1.8415221E3,3.5580612E2,1.0934895E3,3.5251083E2,8.5119073E2,6.4774817E2,1.1160533E3,1.5820037E3,1.1602718E1,1.5989331E3,2.4258894E2,1.9400763E2,1.617985E2,5.771504E2,5.163391E2,1.7244173E2,1.800691E2,2.4368481E2,6.075059E2,1.5678491E2,4.9096326E2,5.4454504E2,5.7150836E2,1.206832E3,3.7517157E2,6.050716E0,5.552003E0,1.1565957E3,4.4233746E2,1.09239265E2,1.3334967E2,1.4875923E2,4.5248398E1,1.4987222E2,1.192627E1,4.0489795E2,1.7225247E2,4.2070047E2,9.5638664E1,8.304042E1,8.940131E1,1.870198E1,1.6136713E2,1.4938542E2,9.4299385E1,2.0057614E2,4.0692978E2,3.0760807E1,1.2602411E2,1.3165596E2,3.5930728E2,4.6122415E2,8.332089E1],"tree_param":{"num_deleted":"0","num_feature":"84","num_nodes":"61","size_leaf_vector":"1"}},{"base_weights":[-3.933526E-3,-5.6711596E-1,9.1116065E-1,-8.4206516E-1,-7.7864945E-2,2.6276207E-1,1.2393768E0,-1.0593894E0,-6.434379E-1,-3.9852846E-1,2.8365707E-1,-2.231863E-1,4.3197766E-1,7.807441E-1,1.4442819E0,-1.0974652E0,-8.417008E-1,-7.953511E-1,-3.410696E-1,-5.2816635E-1,5.6829672E-2,-3.5978043E-1,4.1315073E-1,1.0920383E0,-2.8678998E-1,9.897659E-2,5.7489616E-1,9.32946E-1,2.8958577E-1,1.2724574E0,4.866134E-2,-3.5534322E-2,-3.1073043E-2,-2.9042268E-2,-1.758486E-2,-2.801658E-2,-1.1618416E-2,-1.4339023E-2,5.4475795E-3,-2.0697847E-2,-9.267049E-3,-4.048592E-3,1.0060369E-2,-1.7526412E-2,7.918E-3,2.2343999E-2,5.180773E-3,4.7126744E-2,8.803812E-3,-1.5118048E-2,-2.044723E-3,-2.569792E-2,5.3527094E-3,2.207455E-2,6.157963E-3,2.0685116E-2,3.544848E-2,-2.5534602E-3,1.8954683E-2,4.070698E-2,2.1512019E-2],"categories":[],"categories_nodes":[],"categories_segments":[],"categories_sizes":[],"default_left":[0,0,0,0,0,0,0,0,0,0,0,0,0,0,0,0,0,0,0,0,0,0,0,0,0,0,0,0,0,0,0,0,0,0,0,0,0,0,0,0,0,0,0,0,0,0,0,0,0,0,0,0,0,0,0,0,0,0,0,0,0],"id":17,"left_children":[1,3,5,7,9,11,13,15,17,19,21,23,25,27,29,31,33,35,37,39,41,43,45,47,49,51,53,55,57,59,-1,-1,-1,-1,-1,-1,-1,-1,-1,-1,-1,-1,-1,-1,-1,-1,-1,-1,-1,-1,-1,-1,-1,-1,-1,-1,-1,-1,-1,-1,-1],"loss_changes":[4.0186191E3,6.4914526E2,6.3147437E2,1.319375E2,2.0182365E2,8.25118E1,1.8292676E2,1.0259399E1,7.379846E1,5.4537888E1,6.849802E1,2.2316582E1,3.522223E1,4.5246277E1,3.727954E1,4.126465E0,6.1493073E0,6.0064026E1,3.9200348E1,2.5001617E1,1.111149E1,1.9660408E1,5.4114E1,3.7122507E0,1.1743244E1,1.740632E1,3.0550842E1,2.656189E1,1.9122822E1,3.0834229E1,0E0,0E0,0E0,0E0,0E0,0E0,0E0,0E0,0E0,0E0,0E0,0E0,0E0,0E0,0E0,0E0,0E0,0E0,0E0,0E0,0E0,0E0,0E0,0E0,0E0,0E0,0E0,0E0,0E0,0E0,0E0],"parents":[2147483647,0,0,1,1,2,2,3,3,4,4,5,5,6,6,7,7,8,8,9,9,10,10,11,11,12,12,13,13,14,14,15,15,16,16,17,17,18,18,19,19,20,20,21,21,22,22,23,23,24,24,25,25,26,26,27,27,28,28,29,29],"right_children":[2,4,6,8,10,12,14,16,18,20,22,24,26,28,30,32,34,36,38,40,42,44,46,48,50,52,54,56,58,60,-1,-1,-1,-1,-1,-1,-1,-1,-1,-1,-1,-1,-1,-1,-1,-1,-1,-1,-1,-1,-1,-1,-1,-1,-1,-1,-1,-1,-1,-1,-1],"split_conditions":[1.4343779E0,-9.6982375E-2,1.4284228E0,-7.62953E-1,-3.7144627E-2,-4.000488E-1,7.202206E-1,-9.3074866E-2,-9.3219355E-2,-6.933623E-2,-9.6532434E-1,-1.5711887E0,-8.352267E-2,4.818079E-1,1.9277577E0,-1.0416116E0,-2.7776718E-1,7.557904E-2,3.0631825E-1,-2.794281E-1,-4.0619972E-1,1.0515679E0,-7.99263E-1,-4.86058E-1,-1.6269898E-16,-1.090562E0,1.5569463E-1,-5.5269033E-2,6.4038727E-3,1.2247449E0,4.866134E-2,-3.5534322E-2,-3.1073043E-2,-2.9042268E-2,-1.758486E-2,-2.801658E-2,-1.1618416E-2,-1.4339023E-2,5.4475795E-3,-2.0697847E-2,-9.267049E-3,-4.048592E-3,1.0060369E-2,-1.7526412E-2,7.918E-3,2.2343999E-2,5.180773E-3,4.7126744E-2,8.803812E-3,-1.5118048E-2,-2.044723E-3,-2.569792E-2,5.3527094E-3,2.207455E-2,6.157963E-3,2.0685116E-2,3.544848E-2,-2.5534602E-3,1.8954683E-2,4.070698E-2,2.1512019E-2],"split_indices":[50,19,51,12,12,12,12,64,64,14,35,10,18,10,12,12,69,35,12,42,12,12,10,35,58,35,10,18,12,58,0,0,0,0,0,0,0,0,0,0,0,0,0,0,0,0,0,0,0,0,0,0,0,0,0,0,0,0,0,0,0],"split_type":[0,0,0,0,0,0,0,0,0,0,0,0,0,0,0,0,0,0,0,0,0,0,0,0,0,0,0,0,0,0,0,0,0,0,0,0,0,0,0,0,0,0,0,0,0,0,0,0,0,0,0,0,0,0,0,0,0,0,0,0,0],"sum_hessian":[7.793647E3,4.824988E3,2.968659E3,3.0880317E3,1.7369562E3,9.989546E2,1.9697042E3,1.4703534E3,1.6176785E3,9.204591E2,8.164971E2,2.577687E2,7.411859E2,6.1130475E2,1.3583995E3,1.2443856E3,2.2596771E2,1.0744414E3,5.432371E2,7.1631757E2,2.0414153E2,1.3613196E2,6.803651E2,1.0362548E1,2.4740614E2,2.236995E2,5.174864E2,4.6523523E2,1.4606953E2,6.9917633E2,6.5922314E2,5.008388E2,7.435468E2,1.473329E2,7.863481E1,8.0011316E2,2.7432828E2,4.3069336E2,1.1254375E2,4.096087E2,3.0670886E2,1.2139902E2,8.274251E1,1.0026135E2,3.5870598E1,2.8410876E2,3.9625635E2,5.2297726E0,5.132776E0,1.2270123E2,1.2470491E2,1.5620911E1,2.0807858E2,3.5905276E2,1.5843364E2,2.3900328E2,2.2623196E2,7.0375175E1,7.569436E1,6.0431885E2,9.485751E1],"tree_param":{"num_deleted":"0","num_feature":"84","num_nodes":"61","size_leaf_vector":"1"}},{"base_weights":[3.0264559E-3,-6.132907E-1,7.96695E-1,-8.5633403E-1,-1.5856567E-1,1.6150634E-1,1.1756595E0,-1.0133904E0,-5.806873E-1,-4.4134122E-1,1.9159546E-1,-2.3137634E-1,4.4872642E-1,8.1479764E-1,1.4399939E0,-1.1040645E0,-8.863242E-1,-3.5166615E-1,-9.453255E-1,-5.915589E-1,-9.690125E-2,-4.3013534E-1,3.1721094E-1,-5.863723E-1,-4.472244E-2,1.476829E-1,6.1228216E-1,4.0283415E-1,9.723609E-1,1.0909928E0,1.5141532E0,-3.4895577E-2,-3.1191587E-2,-3.0911561E-2,-2.1494852E-2,-1.6068488E-2,-1.4616835E-3,-2.9869907E-2,6.591351E-3,-2.3947434E-2,-1.2977322E-2,-1.9207507E-2,4.172008E-4,7.4024005E-3,-1.8686457E-2,6.5464517E-3,3.3184364E-2,-5.154392E-3,-2.1229343E-2,-7.7548698E-3,5.916404E-3,-1.18227815E-2,7.5918306E-3,1.0938849E-2,2.332356E-2,1.957495E-2,-1.7874286E-3,1.9607747E-2,3.4002345E-2,1.5943978E-2,3.532321E-2,3.8947243E-2,4.7175054E-2],"categories":[],"categories_nodes":[],"categories_segments":[],"categories_sizes":[],"default_left":[0,0,0,0,0,0,0,0,0,0,0,0,0,0,0,0,0,0,0,0,0,0,0,0,0,0,0,0,0,0,0,0,0,0,0,0,0,0,0,0,0,0,0,0,0,0,0,0,0,0,0,0,0,0,0,0,0,0,0,0,0,0,0],"id":18,"left_children":[1,3,5,7,9,11,13,15,17,19,21,23,25,27,29,31,33,35,37,39,41,43,45,47,49,51,53,55,57,59,61,-1,-1,-1,-1,-1,-1,-1,-1,-1,-1,-1,-1,-1,-1,-1,-1,-1,-1,-1,-1,-1,-1,-1,-1,-1,-1,-1,-1,-1,-1,-1,-1],"loss_changes":[3.7997278E3,4.8291675E2,8.168938E2,1.22081055E2,1.5123532E2,1.4366307E2,2.0036523E2,1.8821533E1,8.602658E1,4.3554382E1,5.3599026E1,3.5570473E1,3.597505E1,5.7806763E1,2.8260498E1,1.4621582E0,1.7152039E1,3.5659775E1,2.390567E1,1.8558197E1,1.5642772E1,1.5403042E1,4.391512E1,9.022175E0,1.8461237E1,1.51230135E1,1.8829056E1,2.9375324E1,3.1910645E1,9.395752E0,8.4313965E0,0E0,0E0,0E0,0E0,0E0,0E0,0E0,0E0,0E0,0E0,0E0,0E0,0E0,0E0,0E0,0E0,0E0,0E0,0E0,0E0,0E0,0E0,0E0,0E0,0E0,0E0,0E0,0E0,0E0,0E0,0E0,0E0],"parents":[2147483647,0,0,1,1,2,2,3,3,4,4,5,5,6,6,7,7,8,8,9,9,10,10,11,11,12,12,13,13,14,14,15,15,16,16,17,17,18,18,19,19,20,20,21,21,22,22,23,23,24,24,25,25,26,26,27,27,28,28,29,29,30,30],"right_children":[2,4,6,8,10,12,14,16,18,20,22,24,26,28,30,32,34,36,38,40,42,44,46,48,50,52,54,56,58,60,62,-1,-1,-1,-1,-1,-1,-1,-1,-1,-1,-1,-1,-1,-1,-1,-1,-1,-1,-1,-1,-1,-1,-1,-1,-1,-1,-1,-1,-1,-1,-1,-1],"split_conditions":[-9.7806185E-2,-9.6982375E-2,1.4284228E0,-3.6662355E-1,-3.7144627E-2,-2.0281827E-1,1.008365E0,-8.899694E-1,1.2247449E0,-8.032627E-2,-9.7638774E-1,-7.0246893E-1,-2.7076787E-1,-8.494299E-3,-7.373224E-2,-1.0416116E0,-1.8617226E-1,-8.5176066E-2,1E0,-6.625063E-1,-7.424058E-1,4.219087E-1,1.3728144E0,-1.6108109E-1,8.6045104E-1,-1.3242948E0,-8.3025075E-2,3.625482E-1,-8.0561556E-2,-9.041563E-2,-6.824396E-2,-3.4895577E-2,-3.1191587E-2,-3.0911561E-2,-2.1494852E-2,-1.6068488E-2,-1.4616835E-3,-2.9869907E-2,6.591351E-3,-2.3947434E-2,-1.2977322E-2,-1.9207507E-2,4.172008E-4,7.4024005E-3,-1.8686457E-2,6.5464517E-3,3.3184364E-2,-5.154392E-3,-2.1229343E-2,-7.7548698E-3,5.916404E-3,-1.18227815E-2,7.5918306E-3,1.0938849E-2,2.332356E-2,1.957495E-2,-1.7874286E-3,1.9607747E-2,3.4002345E-2,1.5943978E-2,3.532321E-2,3.8947243E-2,4.7175054E-2],"split_indices":[13,19,51,11,12,12,12,12,58,14,35,12,43,12,14,12,27,12,74,12,32,9,11,10,1,31,13,10,13,13,13,0,0,0,0,0,0,0,0,0,0,0,0,0,0,0,0,0,0,0,0,0,0,0,0,0,0,0,0,0,0,0,0],"split_type":[0,0,0,0,0,0,0,0,0,0,0,0,0,0,0,0,0,0,0,0,0,0,0,0,0,0,0,0,0,0,0,0,0,0,0,0,0,0,0,0,0,0,0,0,0,0,0,0,0,0,0,0,0,0,0,0,0,0,0,0,0,0,0],"sum_hessian":[7.7639805E3,4.3704966E3,3.393484E3,2.8469636E3,1.523533E3,1.2691782E3,2.1243057E3,1.8100881E3,1.0368754E3,8.4265875E2,6.8087415E2,5.360883E2,7.330899E2,9.0169305E2,1.2226125E3,1.0471052E3,7.629829E2,6.3936835E2,3.9750705E2,5.8565985E2,2.569989E2,1.1356087E2,5.673133E2,1.8316911E2,3.529192E2,2.5952158E2,4.735683E2,2.5151498E2,6.501781E2,2.1988924E2,1.0027233E3,5.2749695E2,5.196083E2,4.071664E2,3.5581647E2,3.9675427E2,2.426141E2,3.8136307E2,1.614398E1,2.5099254E2,3.3466733E2,4.19909E1,2.1500801E2,2.4988218E1,8.857265E1,5.0638803E2,6.0925243E1,4.264313E1,1.4052599E2,1.874018E2,1.6551741E2,4.128921E1,2.1823238E2,1.921615E2,2.814068E2,1.6286693E2,8.8648056E1,2.2173083E2,4.2844727E2,3.1417242E1,1.88472E2,2.2340346E2,7.793199E2],"tree_param":{"num_deleted":"0","num_feature":"84","num_nodes":"63","size_leaf_vector":"1"}},{"base_weights":[-2.7966404E-3,-5.4659045E-1,8.64897E-1,-8.214952E-1,-7.374065E-2,3.7688923E-1,1.2720859E0,-9.8208123E-1,-5.3224367E-1,-2.9638955E-1,4.5129102E-1,6.0480763E-3,6.481084E-1,1.0133547E0,1.5101842E0,-1.0929167E0,-8.4525746E-1,-3.2258606E-1,-8.9987993E-1,-3.7487522E-1,4.3195027E-1,3.4166446E-1,1.1781213E0,-4.8821393E-1,1.14216834E-1,3.8988748E-1,8.4171367E-1,4.8592478E-1,1.1060485E0,1.2762768E0,1.5607443E0,-3.0945435E-2,-3.5115846E-2,-2.8592922E-2,-1.779331E-2,-1.5509026E-2,-1.1828423E-3,-2.8913068E-2,8.540625E-3,-1.7492397E-2,-3.5809577E-3,2.1243675E-2,-1.1762683E-2,1.9295248E-3,1.9263905E-2,1.0577549E-2,4.0205833E-2,-1.6704736E-2,1.2749069E-2,-2.873054E-3,9.462481E-3,3.1478153E-4,1.714714E-2,1.8305289E-2,2.979065E-2,4.478387E-3,2.9300595E-2,3.5289723E-2,1.5656246E-2,1.9036116E-2,3.994051E-2,3.633535E-2,4.7508452E-2],"categories":[],"categories_nodes":[],"categories_segments":[],"categories_sizes":[],"default_left":[0,0,0,0,0,0,0,0,0,0,0,0,0,0,0,0,0,0,0,0,0,0,0,0,0,0,0,0,0,0,0,0,0,0,0,0,0,0,0,0,0,0,0,0,0,0,0,0,0,0,0,0,0,0,0,0,0,0,0,0,0,0,0],"id":19,"left_children":[1,3,5,7,9,11,13,15,17,19,21,23,25,27,29,31,33,35,37,39,41,43,45,47,49,51,53,55,57,59,61,-1,-1,-1,-1,-1,-1,-1,-1,-1,-1,-1,-1,-1,-1,-1,-1,-1,-1,-1,-1,-1,-1,-1,-1,-1,-1,-1,-1,-1,-1,-1,-1],"loss_changes":[3.629087E3,6.144391E2,5.8776636E2,1.377461E2,2.0372267E2,1.3581252E2,9.6267334E1,2.7170532E1,8.196506E1,7.0260994E1,4.047513E1,3.0709486E1,3.8278778E1,3.69729E1,5.767578E0,2.4960938E0,2.2400818E1,3.7673492E1,2.9948395E1,5.864212E1,2.7854168E1,3.770548E1,7.954468E0,6.9407444E0,1.999354E1,2.326284E1,1.4261536E1,1.9513943E1,2.5850159E1,3.8611755E0,1.4504395E0,0E0,0E0,0E0,0E0,0E0,0E0,0E0,0E0,0E0,0E0,0E0,0E0,0E0,0E0,0E0,0E0,0E0,0E0,0E0,0E0,0E0,0E0,0E0,0E0,0E0,0E0,0E0,0E0,0E0,0E0,0E0,0E0],"parents":[2147483647,0,0,1,1,2,2,3,3,4,4,5,5,6,6,7,7,8,8,9,9,10,10,11,11,12,12,13,13,14,14,15,15,16,16,17,17,18,18,19,19,20,20,21,21,22,22,23,23,24,24,25,25,26,26,27,27,28,28,29,29,30,30],"right_children":[2,4,6,8,10,12,14,16,18,20,22,24,26,28,30,32,34,36,38,40,42,44,46,48,50,52,54,56,58,60,62,-1,-1,-1,-1,-1,-1,-1,-1,-1,-1,-1,-1,-1,-1,-1,-1,-1,-1,-1,-1,-1,-1,-1,-1,-1,-1,-1,-1,-1,-1,-1,-1],"split_conditions":[1.4343779E0,-9.6982375E-2,-7.863472E-2,-3.1231603E-1,7.202415E-1,9.425171E-2,1.4411561E0,-8.975787E-1,1.2247449E0,1.4188039E-2,1.4340996E0,-7.095847E-1,-9.571232E-2,-1.14909805E-1,-6.811159E-2,7.0710677E-1,3.686195E-1,-8.5176066E-2,1E0,8.6242086E-1,-6.660577E-2,1.7319121E-16,-8.612473E-1,6.809739E-1,-1.6269898E-16,-8.3025075E-2,7.202206E-1,-1.61262E-1,1.2247449E0,-1.2034924E0,-6.933623E-2,-3.0945435E-2,-3.5115846E-2,-2.8592922E-2,-1.779331E-2,-1.5509026E-2,-1.1828423E-3,-2.8913068E-2,8.540625E-3,-1.7492397E-2,-3.5809577E-3,2.1243675E-2,-1.1762683E-2,1.9295248E-3,1.9263905E-2,1.0577549E-2,4.0205833E-2,-1.6704736E-2,1.2749069E-2,-2.873054E-3,9.462481E-3,3.1478153E-4,1.714714E-2,1.8305289E-2,2.979065E-2,4.478387E-3,2.9300595E-2,3.5289723E-2,1.5656246E-2,1.9036116E-2,3.994051E-2,3.633535E-2,4.7508452E-2],"split_indices":[50,19,19,11,11,12,12,12,58,14,11,12,14,12,18,58,26,12,74,0,29,59,32,30,58,13,12,30,58,26,14,0,0,0,0,0,0,0,0,0,0,0,0,0,0,0,0,0,0,0,0,0,0,0,0,0,0,0,0,0,0,0,0],"split_type":[0,0,0,0,0,0,0,0,0,0,0,0,0,0,0,0,0,0,0,0,0,0,0,0,0,0,0,0,0,0,0,0,0,0,0,0,0,0,0,0,0,0,0,0,0,0,0,0,0,0,0,0,0,0,0,0,0,0,0,0,0,0,0],"sum_hessian":[7.687275E3,4.7261436E3,2.9611316E3,2.9876228E3,1.7385206E3,1.348707E3,1.6124246E3,1.9178898E3,1.0697332E3,1.2214918E3,5.170288E2,5.7066254E2,7.7804456E2,7.7786914E2,8.345554E2,1.0516493E3,8.6624036E2,6.837127E2,3.8602045E2,1.1036067E3,1.1788507E2,4.5188126E2,6.514754E1,1.0111995E2,4.6954257E2,3.3608167E2,4.419629E2,1.1821986E2,6.596493E2,1.5783475E2,6.767207E2,6.034539E2,4.4819543E2,6.0271094E2,2.6352945E2,4.0432492E2,2.7938782E2,3.6665985E2,1.9360598E1,6.0657434E2,4.970324E2,8.855004E1,2.9335024E1,2.3632986E2,2.155514E2,1.1783995E1,5.336354E1,9.4830246E1,6.2897034E0,2.3014597E2,2.393966E2,1.0960133E2,2.2648033E2,1.7878099E2,2.631819E2,7.172754E1,4.6492317E1,5.869292E2,7.272007E1,1.4525755E1,1.4330899E2,4.831752E1,6.284032E2],"tree_param":{"num_deleted":"0","num_feature":"84","num_nodes":"63","size_leaf_vector":"1"}},{"base_weights":[2.7199911E-3,-5.3515416E-1,8.519529E-1,-8.483001E-1,-1.2931812E-1,2.4829963E-1,1.1594591E0,-8.9813966E-1,-1.8988828E-1,-3.7015626E-1,3.0648032E-1,5.2267665E-1,-4.9053584E-3,8.768329E-1,1.4188102E0,-1.0158023E0,-7.193624E-1,-4.5936322E-1,1.270814E-1,-1.632232E-1,-7.5270754E-1,1.0138223E-1,7.2264516E-1,1.2435367E0,4.0393963E-1,-4.4074908E-1,1.6641612E-1,5.048472E-1,1.0435712E0,9.7098285E-1,1.4627554E0,-3.333659E-2,-2.7901912E-2,-2.4878163E-2,-1.4436876E-2,-1.792518E-2,4.821238E-3,1.1802517E-2,-6.339782E-3,-1.1762094E-2,2.3740218E-3,-2.5560338E-2,1.091939E-2,5.2968385E-6,3.79607E-2,7.3443907E-3,2.5830321E-2,-3.0001556E-3,4.232528E-2,-3.1368984E-3,1.6266756E-2,1.2765827E-2,-1.4401451E-2,-2.1803724E-3,9.856517E-3,-1.5260426E-2,1.7209783E-2,2.021112E-2,3.531412E-2,2.05038E-2,3.7401088E-2,3.7479833E-2,4.5504384E-2],"categories":[],"categories_nodes":[],"categories_segments":[],"categories_sizes":[],"default_left":[0,0,0,0,0,0,0,0,0,0,0,0,0,0,0,0,0,0,0,0,0,0,0,0,0,0,0,0,0,0,0,0,0,0,0,0,0,0,0,0,0,0,0,0,0,0,0,0,0,0,0,0,0,0,0,0,0,0,0,0,0,0,0],"id":20,"left_children":[1,3,5,7,9,11,13,15,17,19,21,23,25,27,29,31,33,35,37,39,41,43,45,47,49,51,53,55,57,59,61,-1,-1,-1,-1,-1,-1,-1,-1,-1,-1,-1,-1,-1,-1,-1,-1,-1,-1,-1,-1,-1,-1,-1,-1,-1,-1,-1,-1,-1,-1,-1,-1],"loss_changes":[3.4866792E3,5.9363257E2,5.4879297E2,8.6151245E1,2.1411214E2,6.961133E1,1.4109131E2,5.0013916E1,1.6208675E1,1.03685455E2,6.1809265E1,4.0064743E1,3.9193874E1,5.7383728E1,1.7090576E1,9.883667E0,2.4784882E1,8.971636E0,8.103321E0,4.7499474E1,5.170343E1,5.75366E1,1.5350044E1,1.5401764E1,2.9374733E1,5.4543247E0,1.4660343E1,2.1228142E1,3.0405762E1,5.897423E0,6.730591E0,0E0,0E0,0E0,0E0,0E0,0E0,0E0,0E0,0E0,0E0,0E0,0E0,0E0,0E0,0E0,0E0,0E0,0E0,0E0,0E0,0E0,0E0,0E0,0E0,0E0,0E0,0E0,0E0,0E0,0E0,0E0,0E0],"parents":[2147483647,0,0,1,1,2,2,3,3,4,4,5,5,6,6,7,7,8,8,9,9,10,10,11,11,12,12,13,13,14,14,15,15,16,16,17,17,18,18,19,19,20,20,21,21,22,22,23,23,24,24,25,25,26,26,27,27,28,28,29,29,30,30],"right_children":[2,4,6,8,10,12,14,16,18,20,22,24,26,28,30,32,34,36,38,40,42,44,46,48,50,52,54,56,58,60,62,-1,-1,-1,-1,-1,-1,-1,-1,-1,-1,-1,-1,-1,-1,-1,-1,-1,-1,-1,-1,-1,-1,-1,-1,-1,-1,-1,-1,-1,-1,-1,-1],"split_conditions":[1.4343779E0,-1.6111894E-1,1.4284228E0,-8.092817E-2,1.4284228E0,-2.5682062E-1,1.3067349E0,-8.0419207E-1,4.5952162E-1,1.2247449E0,1.1597123E0,-1.2247449E0,-3.24122E-1,-7.838564E-2,-8.352267E-2,-1.1060975E0,3.686195E-1,1.1557735E0,1.0978326E0,-2.0133495E-2,1E0,2.1492778E-1,-7.030037E-1,-6.142979E-1,-1.4717409E-1,-6.118197E-1,-8.267565E-2,-1.0421861E0,-2.2493838E-1,-8.0296464E-2,-6.487397E-2,-3.333659E-2,-2.7901912E-2,-2.4878163E-2,-1.4436876E-2,-1.792518E-2,4.821238E-3,1.1802517E-2,-6.339782E-3,-1.1762094E-2,2.3740218E-3,-2.5560338E-2,1.091939E-2,5.2968385E-6,3.79607E-2,7.3443907E-3,2.5830321E-2,-3.0001556E-3,4.232528E-2,-3.1368984E-3,1.6266756E-2,1.2765827E-2,-1.4401451E-2,-2.1803724E-3,9.856517E-3,-1.5260426E-2,1.7209783E-2,2.021112E-2,3.531412E-2,2.05038E-2,3.7401088E-2,3.7479833E-2,4.5504384E-2],"split_indices":[50,11,51,19,51,10,12,12,32,58,5,59,11,18,18,5,26,10,33,12,74,19,32,29,12,29,65,32,9,71,19,0,0,0,0,0,0,0,0,0,0,0,0,0,0,0,0,0,0,0,0,0,0,0,0,0,0,0,0,0,0,0,0],"split_type":[0,0,0,0,0,0,0,0,0,0,0,0,0,0,0,0,0,0,0,0,0,0,0,0,0,0,0,0,0,0,0,0,0,0,0,0,0,0,0,0,0,0,0,0,0,0,0,0,0,0,0,0,0,0,0,0,0,0,0,0,0,0,0],"sum_hessian":[7.6291313E3,4.671224E3,2.9579075E3,2.6354153E3,2.0358086E3,9.995358E2,1.9583717E3,2.4492139E3,1.8620154E2,1.3114624E3,7.243461E2,4.787853E2,5.2075055E2,9.4141986E2,1.01695184E3,1.4712588E3,9.77955E2,1.0024042E2,8.596112E1,8.530221E2,4.5844034E2,4.8696368E2,2.3738246E2,6.497156E1,4.1381375E2,1.4613304E2,3.746175E2,2.9396124E2,6.474586E2,9.510495E1,9.2184686E2,6.847277E2,7.8653107E2,6.655825E2,3.1237247E2,8.2102585E1,1.8137836E1,4.8003616E1,3.7957504E1,4.3821097E2,4.1481116E2,4.214783E2,3.696202E1,4.4988977E2,3.707392E1,5.462844E1,1.8275401E2,7.250719E0,5.772084E1,8.8501755E1,3.25312E2,5.433522E0,1.4069951E2,1.5170193E2,2.2291554E2,1.7830256E1,2.7613098E2,1.7508382E2,4.7237482E2,5.0050697E1,4.5054253E1,1.9623294E2,7.2561395E2],"tree_param":{"num_deleted":"0","num_feature":"84","num_nodes":"63","size_leaf_vector":"1"}},{"base_weights":[-3.0887788E-3,-6.3418686E-1,6.7059726E-1,-8.402735E-1,-2.2589932E-1,1.8582305E-1,1.1261708E0,-1.0001419E0,-6.102292E-1,-3.372116E-1,3.6761057E-1,-1.9483027E-1,4.6641585E-1,8.941093E-1,1.4264078E0,-1.0887417E0,-9.0575063E-1,-4.2964995E-1,-9.055315E-1,-4.176303E-1,3.9518106E-1,-2.997182E-1,5.1268536E-1,-4.1359872E-1,1.0884637E-1,3.7131378E-1,1.0764544E0,5.7254124E-1,1.087642E0,1.1664002E0,1.5047E0,-3.375952E-2,-2.899656E-2,-3.0495396E-2,-2.3550982E-2,-1.4860223E-2,3.5656309E-3,-2.8391415E-2,-9.47735E-4,-9.141513E-3,-2.2095904E-2,1.828261E-2,-8.216962E-3,-3.0088859E-2,-3.0790484E-3,9.792234E-3,2.9437669E-2,-1.6661813E-2,-3.969758E-3,-9.7420635E-3,9.324626E-3,-8.979685E-3,1.3571217E-2,3.3782497E-2,1.1705457E-3,-3.6846963E-3,2.0266423E-2,1.5200328E-2,3.496389E-2,1.8882422E-2,3.679983E-2,3.786557E-2,4.6051268E-2],"categories":[],"categories_nodes":[],"categories_segments":[],"categories_sizes":[],"default_left":[0,0,0,0,0,0,0,0,0,0,0,0,0,0,0,0,0,0,0,0,0,0,0,0,0,0,0,0,0,0,0,0,0,0,0,0,0,0,0,0,0,0,0,0,0,0,0,0,0,0,0,0,0,0,0,0,0,0,0,0,0,0,0],"id":21,"left_children":[1,3,5,7,9,11,13,15,17,19,21,23,25,27,29,31,33,35,37,39,41,43,45,47,49,51,53,55,57,59,61,-1,-1,-1,-1,-1,-1,-1,-1,-1,-1,-1,-1,-1,-1,-1,-1,-1,-1,-1,-1,-1,-1,-1,-1,-1,-1,-1,-1,-1,-1,-1,-1],"loss_changes":[3.2282444E3,3.2944324E2,8.105974E2,9.4485596E1,8.7313095E1,1.9049576E2,1.2921411E2,1.0751953E1,5.6381348E1,6.57596E1,2.0553797E1,5.0421654E1,5.867099E1,6.545416E1,1.3084351E1,1.2095337E0,8.403687E0,2.4272034E1,1.4360718E1,3.5579086E1,1.6243776E1,5.0785103E0,1.4350048E1,1.7397018E1,2.8104588E1,4.8716103E1,6.92276E0,2.9381485E1,2.8917969E1,4.809662E0,5.806885E-1,0E0,0E0,0E0,0E0,0E0,0E0,0E0,0E0,0E0,0E0,0E0,0E0,0E0,0E0,0E0,0E0,0E0,0E0,0E0,0E0,0E0,0E0,0E0,0E0,0E0,0E0,0E0,0E0,0E0,0E0,0E0,0E0],"parents":[2147483647,0,0,1,1,2,2,3,3,4,4,5,5,6,6,7,7,8,8,9,9,10,10,11,11,12,12,13,13,14,14,15,15,16,16,17,17,18,18,19,19,20,20,21,21,22,22,23,23,24,24,25,25,26,26,27,27,28,28,29,29,30,30],"right_children":[2,4,6,8,10,12,14,16,18,20,22,24,26,28,30,32,34,36,38,40,42,44,46,48,50,52,54,56,58,60,62,-1,-1,-1,-1,-1,-1,-1,-1,-1,-1,-1,-1,-1,-1,-1,-1,-1,-1,-1,-1,-1,-1,-1,-1,-1,-1,-1,-1,-1,-1,-1,-1],"split_conditions":[-1.00269705E-1,-9.6982375E-2,-8.252427E-2,-4.9724248E-1,9.774876E-1,2.1841657E-1,1.4051594E0,-1.1028686E0,1.2247449E0,1.0810106E-2,-2.3176472E-1,5.1223546E-1,1.384794E0,-7.838564E-2,-6.5543085E-2,5.432986E-1,-1.7740987E-1,5.610447E-1,1E0,1.2247449E0,1.393719E-2,-8.5557544E-1,1.3728144E0,-1.6111894E-1,-2.6690534E-1,-9.710773E-1,1.5877813E0,-1.7111646E-1,-7.8880256E-1,1.4244518E0,-6.487397E-2,-3.375952E-2,-2.899656E-2,-3.0495396E-2,-2.3550982E-2,-1.4860223E-2,3.5656309E-3,-2.8391415E-2,-9.47735E-4,-9.141513E-3,-2.2095904E-2,1.828261E-2,-8.216962E-3,-3.0088859E-2,-3.0790484E-3,9.792234E-3,2.9437669E-2,-1.6661813E-2,-3.969758E-3,-9.7420635E-3,9.324626E-3,-8.979685E-3,1.3571217E-2,3.3782497E-2,1.1705457E-3,-3.6846963E-3,2.0266423E-2,1.5200328E-2,3.496389E-2,1.8882422E-2,3.679983E-2,3.786557E-2,4.6051268E-2],"split_indices":[13,19,14,11,11,11,11,11,58,19,23,9,11,18,18,26,27,55,74,58,29,35,11,11,23,35,63,11,9,54,19,0,0,0,0,0,0,0,0,0,0,0,0,0,0,0,0,0,0,0,0,0,0,0,0,0,0,0,0,0,0,0,0],"split_type":[0,0,0,0,0,0,0,0,0,0,0,0,0,0,0,0,0,0,0,0,0,0,0,0,0,0,0,0,0,0,0,0,0,0,0,0,0,0,0,0,0,0,0,0,0,0,0,0,0,0,0,0,0,0,0,0,0,0,0,0,0,0,0],"sum_hessian":[7.58898E3,3.9184404E3,3.6705398E3,2.602545E3,1.3158954E3,1.7796964E3,1.8908433E3,1.5313955E3,1.0711495E3,1.1088748E3,2.0702063E2,7.553791E2,1.0243174E3,1.0710906E3,8.197527E2,7.7878986E2,7.526056E2,6.6784015E2,4.033093E2,9.999999E2,1.08874886E2,3.652641E1,1.7049422E2,4.387469E2,3.1663223E2,8.8902234E2,1.3529498E2,4.0549954E2,6.65591E2,1.9722035E2,6.2253235E2,5.864241E2,1.9236581E2,3.8453082E2,3.680748E2,5.966663E2,7.117385E1,3.8508688E2,1.8222404E1,7.415177E2,2.5848215E2,8.266017E1,2.6214716E1,6.1499724E0,3.0376438E1,1.2449988E2,4.599434E1,2.9028302E2,1.4846387E2,1.00158104E2,2.1647414E2,9.522157E1,7.938008E2,1.2890913E2,6.3858457E0,5.220548E1,3.5329407E2,8.04755E1,5.8511554E2,2.2292274E1,1.7492807E2,7.888447E1,5.436478E2],"tree_param":{"num_deleted":"0","num_feature":"84","num_nodes":"63","size_leaf_vector":"1"}},{"base_weights":[3.908145E-3,-5.015092E-1,7.960868E-1,-7.3096496E-1,5.995668E-2,2.8616118E-1,1.1504092E0,-8.609E-1,-3.7482545E-1,-5.992919E-1,2.3980738E-1,-7.765575E-2,4.9371603E-1,8.558796E-1,1.3989556E0,-1.0190444E0,-6.866373E-1,-4.9422237E-1,3.8526718E-2,-8.154358E-1,-9.7319335E-3,1.2531634E-1,7.7192277E-1,1.953621E-1,-3.1666923E-1,3.225553E-1,8.130776E-1,3.837691E-1,9.795043E-1,1.2258192E0,4.453245E-2,-3.387165E-2,-2.8474497E-2,-1.7206557E-2,-2.8843705E-2,-2.300436E-2,-1.0985247E-2,-6.003052E-3,9.5775295E-3,-2.9817116E-2,-1.0484376E-2,-4.9190307E-3,2.3343675E-2,1.6065171E-3,2.663643E-2,3.688909E-2,1.4682899E-2,3.0161543E-2,1.3076479E-3,-2.1787146E-2,-5.6281243E-3,1.4280722E-2,3.8104744E-3,8.611581E-3,2.9947298E-2,1.8450402E-2,-1.797246E-3,3.46354E-4,3.042988E-2,4.7181468E-3,3.8013075E-2],"categories":[],"categories_nodes":[],"categories_segments":[],"categories_sizes":[],"default_left":[0,0,0,0,0,0,0,0,0,0,0,0,0,0,0,0,0,0,0,0,0,0,0,0,0,0,0,0,0,0,0,0,0,0,0,0,0,0,0,0,0,0,0,0,0,0,0,0,0,0,0,0,0,0,0,0,0,0,0,0,0],"id":22,"left_children":[1,3,5,7,9,11,13,15,17,19,21,23,25,27,29,31,33,35,37,39,41,43,45,47,49,51,53,55,57,59,-1,-1,-1,-1,-1,-1,-1,-1,-1,-1,-1,-1,-1,-1,-1,-1,-1,-1,-1,-1,-1,-1,-1,-1,-1,-1,-1,-1,-1,-1,-1],"loss_changes":[3.0248225E3,5.9431445E2,5.3094434E2,1.5081287E2,1.5912825E2,9.1402435E1,1.2453955E2,6.458484E1,4.3438484E1,3.6602943E1,6.3982597E1,2.8898834E1,4.1523544E1,4.5844055E1,1.010376E1,7.383789E0,3.4462646E1,2.3192993E1,1.3447191E1,1.6736725E1,9.856205E0,4.746708E1,2.2784424E1,2.5300625E1,1.2153624E1,1.5001026E1,2.540387E1,1.7469934E1,2.1237488E1,1.3719543E1,0E0,0E0,0E0,0E0,0E0,0E0,0E0,0E0,0E0,0E0,0E0,0E0,0E0,0E0,0E0,0E0,0E0,0E0,0E0,0E0,0E0,0E0,0E0,0E0,0E0,0E0,0E0,0E0,0E0,0E0,0E0],"parents":[2147483647,0,0,1,1,2,2,3,3,4,4,5,5,6,6,7,7,8,8,9,9,10,10,11,11,12,12,13,13,14,14,15,15,16,16,17,17,18,18,19,19,20,20,21,21,22,22,23,23,24,24,25,25,26,26,27,27,28,28,29,29],"right_children":[2,4,6,8,10,12,14,16,18,20,22,24,26,28,30,32,34,36,38,40,42,44,46,48,50,52,54,56,58,60,-1,-1,-1,-1,-1,-1,-1,-1,-1,-1,-1,-1,-1,-1,-1,-1,-1,-1,-1,-1,-1,-1,-1,-1,-1,-1,-1,-1,-1,-1,-1],"split_conditions":[1.4343779E0,-8.5176066E-2,-8.322163E-2,-9.6982375E-2,-9.825833E-1,-9.927583E-2,1.3067349E0,-7.4430764E-1,-6.933623E-2,8.3223987E-1,-5.1752172E-2,-1.07125014E-1,7.202206E-1,-8.494299E-3,1.9277577E0,-1.0416116E0,1.2247449E0,-7.62953E-1,-3.24122E-1,-2.6345244E-1,-6.7271896E-2,1.3486313E0,-9.9584323E-1,-1.2247449E0,-7.289858E-1,2.0228909E-1,-8.352267E-2,3.625482E-1,-9.710773E-1,-9.989571E-1,4.453245E-2,-3.387165E-2,-2.8474497E-2,-1.7206557E-2,-2.8843705E-2,-2.300436E-2,-1.0985247E-2,-6.003052E-3,9.5775295E-3,-2.9817116E-2,-1.0484376E-2,-4.9190307E-3,2.3343675E-2,1.6065171E-3,2.663643E-2,3.688909E-2,1.4682899E-2,3.0161543E-2,1.3076479E-3,-2.1787146E-2,-5.6281243E-3,1.4280722E-2,3.8104744E-3,8.611581E-3,2.9947298E-2,1.8450402E-2,-1.797246E-3,3.46354E-4,3.042988E-2,4.7181468E-3,3.8013075E-2],"split_indices":[50,12,19,19,35,19,12,11,14,12,14,10,12,12,12,12,58,12,11,42,65,11,10,59,11,10,18,10,35,35,0,0,0,0,0,0,0,0,0,0,0,0,0,0,0,0,0,0,0,0,0,0,0,0,0,0,0,0,0,0,0],"split_type":[0,0,0,0,0,0,0,0,0,0,0,0,0,0,0,0,0,0,0,0,0,0,0,0,0,0,0,0,0,0,0,0,0,0,0,0,0,0,0,0,0,0,0,0,0,0,0,0,0,0,0,0,0,0,0,0,0,0,0,0,0],"sum_hessian":[7.5508325E3,4.610171E3,2.9406611E3,3.2723403E3,1.3378307E3,1.2071456E3,1.7335156E3,2.3954148E3,8.769257E2,2.8568835E2,1.0521423E3,4.3887137E2,7.6827423E2,7.975271E2,9.359885E2,1.2505508E3,1.1448639E3,6.80184E2,1.9674171E2,2.0842479E2,7.7263565E1,8.6795605E2,1.8418623E2,2.0493565E2,2.339357E2,5.0291522E2,2.6535904E2,1.6728708E2,6.3024E2,3.1965567E2,6.163329E2,4.7379562E2,7.767552E2,8.156063E2,3.2925757E2,2.1407977E2,4.6610425E2,1.0655845E2,9.0183266E1,1.4898718E2,5.9437595E1,6.599179E1,1.1271778E1,7.953142E2,7.264184E1,6.766626E1,1.1651998E2,3.0512325E1,1.7442332E2,5.3744446E1,1.8019125E2,2.8001868E2,2.2289655E2,7.048719E1,1.9487186E2,1.0953688E2,5.7750202E1,2.202951E1,6.082105E2,1.2293353E1,3.073623E2],"tree_param":{"num_deleted":"0","num_feature":"84","num_nodes":"61","size_leaf_vector":"1"}},{"base_weights":[-5.8983187E-3,-5.0384223E-1,7.735553E-1,-7.746202E-1,-7.9485886E-2,3.170293E-1,1.1492865E0,-9.364665E-1,-5.042579E-1,-2.834336E-1,3.8125125E-1,-1.2968996E-1,5.2538425E-1,8.570839E-1,1.373114E0,-1.0508358E0,-7.848061E-1,-3.1404963E-1,-8.344441E-1,-4.5841962E-1,4.516606E-2,2.0259175E-1,6.7316574E-1,-3.590366E-1,8.614953E-2,3.8441855E-1,8.5049915E-1,4.891202E-1,9.898385E-1,1.2260659E0,4.4294663E-2,-3.2028932E-2,-2.4747085E-2,-2.8123058E-2,-1.749443E-2,-1.4650095E-2,-8.479524E-4,-2.697582E-2,1.1408262E-2,-2.3360675E-2,-1.0326554E-2,-1.9794738E-2,6.111262E-3,3.1218904E-3,2.6810998E-2,3.670755E-2,1.4867578E-2,-1.6578367E-2,1.8965703E-3,-4.931332E-3,1.3848003E-2,1.4338836E-2,-9.705153E-3,1.09715015E-2,2.9862378E-2,1.8229883E-2,-3.3130154E-3,1.7685693E-2,3.328676E-2,3.935555E-2,2.1736834E-2],"categories":[],"categories_nodes":[],"categories_segments":[],"categories_sizes":[],"default_left":[0,0,0,0,0,0,0,0,0,0,0,0,0,0,0,0,0,0,0,0,0,0,0,0,0,0,0,0,0,0,0,0,0,0,0,0,0,0,0,0,0,0,0,0,0,0,0,0,0,0,0,0,0,0,0,0,0,0,0,0,0],"id":23,"left_children":[1,3,5,7,9,11,13,15,17,19,21,23,25,27,29,31,33,35,37,39,41,43,45,47,49,51,53,55,57,59,-1,-1,-1,-1,-1,-1,-1,-1,-1,-1,-1,-1,-1,-1,-1,-1,-1,-1,-1,-1,-1,-1,-1,-1,-1,-1,-1,-1,-1,-1,-1],"loss_changes":[2.910691E3,